{"version": "0.5.4", "metadata": {"date": {"year": 2024, "month": 10, "day": 27, "hour": 0, "minute": 1, "second": 10}, "loudness": -18.644817352294922, "gain": 0.5714119751252473, "training": {"settings": {"ignore_checks": false}, "data": {"latency": {"manual": null, "calibration": {"algorithm_version": 1, "delays": [3], "safety_factor": 1, "recommended": 2, "warnings": {"matches_lookahead": false, "disagreement_too_high": false}}}, "checks": {"version": 3, "passed": true}}, "validation_esr": 0.0048959890240226405}}, "architecture": "WaveNet", "config": {"layers": [{"input_size": 1, "condition_size": 1, "head_size": 8, "channels": 16, "kernel_size": 3, "dilations": [1, 2, 4, 8, 16, 32, 64, 128, 256, 512], "activation": "Tanh", "gated": false, "head_bias": false}, {"input_size": 16, "condition_size": 1, "head_size": 1, "channels": 8, "kernel_size": 3, "dilations": [1, 2, 4, 8, 16, 32, 64, 128, 256, 512], "activation": "Tanh", "gated": false, "head_bias": true}], "head": null, "head_scale": 0.02}, "weights": [0.1609412431716919, 0.4459386467933655, -0.9473419189453125, -0.8085272908210754, -0.40024182200431824, 0.3477506637573242, -0.012445485219359398, 0.8463433384895325, -0.16566415131092072, 0.2605077922344208, -0.4843285381793976, -0.1800357699394226, -0.9606435298919678, -0.7639605402946472, -0.45912235975265503, 0.009533660486340523, 0.10324448347091675, 0.06054491549730301, -0.2972449064254761, -0.004993784241378307, 0.07463937997817993, 0.0025634029880166054, -0.08804537355899811, 0.08660735934972763, 0.0997757762670517, -0.04300456866621971, 0.1086137592792511, -0.012232975102961063, -0.14333246648311615, -0.0555390901863575, 0.0642794668674469, 0.1896095871925354, -0.0685746818780899, -0.19007019698619843, -0.1410435140132904, -0.15146754682064056, 0.030463486909866333, 0.18231265246868134, 0.0862916111946106, -0.05252306908369064, -0.03879837691783905, -0.08433115482330322, 0.15739460289478302, -0.07908143848180771, -0.08478029072284698, -0.19617977738380432, 0.03413630649447441, 0.06423941254615784, 0.06349115818738937, -0.062433745712041855, 0.07604513317346573, 0.26338547468185425, -0.00046409224160015583, -0.0028650974854826927, 0.21676944196224213, -0.14283978939056396, 0.005514183547347784, 0.011504147201776505, -0.15459060668945312, -0.0937456414103508, 0.1881689727306366, 0.08194148540496826, -0.09550310671329498, -0.06971798092126846, 0.029266437515616417, -0.01612713746726513, 0.14198382198810577, -0.062446217983961105, 0.02970585785806179, 0.19819797575473785, -0.009558423422276974, 0.011618711985647678, -0.006413502153009176, 0.21936537325382233, 0.188876211643219, 0.064015693962574, 0.12378421425819397, -0.06609399616718292, -0.05407005921006203, -0.18879078328609467, -0.19448544085025787, 0.19444936513900757, 0.15201103687286377, -0.12357699126005173, -0.06204653158783913, -0.12478860467672348, -0.08776373416185379, -0.0028850948438048363, 0.13278146088123322, -0.04573098570108414, -0.03358297422528267, -0.016886603087186813, 0.04981216415762901, 0.12166062742471695, -0.04649478942155838, -0.035036515444517136, -0.002894117496907711, 0.11044477671384811, -0.07313262671232224, -0.15580029785633087, 0.23641955852508545, 0.16153889894485474, -0.12456168979406357, 0.06364687532186508, -0.07405096292495728, -0.06718212366104126, -0.01221995335072279, -0.050968706607818604, -0.07424764335155487, -0.05656864121556282, -0.09934047609567642, 0.10865601152181625, -0.15521861612796783, 0.18240897357463837, -0.026394348591566086, -0.13964571058750153, 0.05018913745880127, -0.05376790463924408, 0.03679894283413887, -0.05549170449376106, 0.12038944661617279, 0.026128344237804413, -0.15888415277004242, 0.13253478705883026, -0.11724546551704407, -0.1691625863313675, 0.0311148501932621, -0.08668532967567444, 0.03899379447102547, -0.18442508578300476, 0.004091184586286545, -0.02870955504477024, -0.013184789568185806, -0.0238339826464653, 0.19266660511493683, -0.0786360502243042, 0.044931523501873016, -0.07983433455228806, 0.11705423146486282, 0.06613877415657043, 0.21496975421905518, 0.020278897136449814, 0.16108287870883942, -0.09589959681034088, -0.056204184889793396, -0.04068180173635483, 0.02509840577840805, 0.06708982586860657, -0.05595792457461357, -0.19995848834514618, -0.0729895532131195, -0.10372354090213776, -0.1177765354514122, 0.1446671485900879, 0.09708984941244125, -0.22498124837875366, 0.15615995228290558, -0.1347484290599823, 0.01742912456393242, -0.12027014046907425, -0.016778895631432533, -0.08497638255357742, -0.08493062108755112, -0.1414610594511032, -0.11068768054246902, -0.0025998218916356564, -0.04466138407588005, 0.1459139883518219, -0.1259916126728058, 0.009167129173874855, 0.21740266680717468, -0.055648572742938995, 0.14249452948570251, 0.1360817700624466, -0.13355599343776703, 0.0708613395690918, -0.1049962118268013, -0.06634406745433807, 0.09551285952329636, -0.07365591824054718, -0.02699485793709755, -0.05041530355811119, 0.011740866117179394, 0.036461714655160904, 0.0643107071518898, 0.11815328896045685, -0.05652432516217232, -0.040482182055711746, -0.19805757701396942, 0.08431260287761688, 0.12670214474201202, 0.1845373809337616, -0.10708808153867722, 0.008529103361070156, -0.03375110402703285, -0.09003745764493942, -0.06392672657966614, 0.14110539853572845, -0.08111057430505753, 0.015542549081146717, 0.09664136916399002, 0.09537048637866974, -0.09258287400007248, -0.011695422232151031, -0.08366803824901581, 0.07731901109218597, -0.11750704050064087, 0.12121932953596115, 9.751524339662865e-05, 0.04137434810400009, -0.16758993268013, 0.011234410107135773, 0.11581536382436752, -0.08028768748044968, -0.04332522302865982, -0.08268458396196365, -0.05536344274878502, -0.11635574698448181, 0.016131611540913582, -0.061114922165870667, -0.048145294189453125, 0.04624466970562935, 0.11034515500068665, 0.044769760221242905, -0.025068221613764763, 0.008270216174423695, -0.09137765318155289, -0.0946965143084526, 0.03548455983400345, 0.020662974566221237, 0.10298574715852737, 0.0632070004940033, 0.0006289012962952256, 0.047979604452848434, 0.16524040699005127, -0.05835786834359169, 0.15692506730556488, -0.16118057072162628, -0.09698683023452759, -0.05563324689865112, 0.11614707857370377, 0.07730064541101456, -0.13098622858524323, 0.05719448998570442, 0.03227788954973221, -0.24043285846710205, 0.15784476697444916, -0.15938951075077057, -0.09842346608638763, 0.03339175134897232, -0.11530783027410507, -0.0792117789387703, 0.17709428071975708, -0.022696545347571373, -0.030937442556023598, -0.08330459147691727, -0.1861487478017807, -0.0392337404191494, -0.04044105112552643, -0.09088095277547836, -0.12134436517953873, 0.1423199623823166, 0.06429363042116165, 0.14552845060825348, -0.0075631290674209595, -0.05704641342163086, -0.004149829037487507, -0.01642007566988468, 0.11220213025808334, 0.07468795776367188, -0.12094729393720627, -0.061764176934957504, -0.18560311198234558, 0.08592137694358826, -0.024483274668455124, -0.04055428132414818, 0.1350993812084198, -0.08361854404211044, -0.05223185196518898, 0.10055743157863617, 0.021362723782658577, -0.03635628521442413, -0.152372807264328, 0.11450780928134918, -0.023842856287956238, 0.17100976407527924, -0.05131978169083595, 0.08461049944162369, -0.08414763957262039, 0.0033076100517064333, -0.022616319358348846, 0.003955158405005932, 0.03532575070858002, 0.030421098694205284, -0.09217074513435364, -0.09775792062282562, 0.13616406917572021, -0.16605296730995178, 0.05051858723163605, -0.01274003367871046, -0.12562678754329681, 0.03554058074951172, -0.11266328394412994, 0.08927308768033981, -0.12747617065906525, -0.133588507771492, 0.05532016605138779, -0.06525222212076187, 0.030313175171613693, 0.0005982215516269207, 0.014137989841401577, 0.0025313638616353273, 0.032060299068689346, 0.08064589649438858, 0.08080232888460159, 0.07919738441705704, 0.05524234101176262, 0.02421780861914158, 0.043211065232753754, -0.12957945466041565, -0.024394232779741287, 0.028515374287962914, 0.0042542205192148685, 0.0630829855799675, 0.11641789227724075, -0.0030722252558916807, 0.05819094553589821, 0.0355941504240036, 0.20971885323524475, -0.03746804967522621, -0.12873385846614838, -0.2561587691307068, 0.11063948273658752, 0.10307957977056503, 0.04282956197857857, 0.08023302257061005, 0.09343734383583069, 0.28160521388053894, 0.16179393231868744, 0.09362681210041046, 0.09863120317459106, -0.025580985471606255, 0.10148528963327408, 0.2143951803445816, -0.06135771796107292, 0.11272893100976944, 0.200378879904747, 0.10364285111427307, -0.10711776465177536, -0.034647922962903976, -0.09039994329214096, 0.12517766654491425, -0.041710395365953445, 0.17839251458644867, -0.04019128158688545, 0.11314602196216583, 0.11693120747804642, 0.08490077406167984, -0.15402936935424805, -0.13813158869743347, -0.10994884371757507, -0.19462263584136963, -0.2857164144515991, 0.10196758061647415, 0.031177490949630737, -0.02723691612482071, 0.10814197361469269, -0.07347109168767929, 0.07707441598176956, -0.009174080565571785, -0.13035385310649872, -0.04183535650372505, -0.10912252962589264, -0.017080510035157204, 0.031466614454984665, -0.06909898668527603, 0.08828999102115631, -0.03346981853246689, 0.11309542506933212, 0.15647298097610474, 0.28945261240005493, -0.031045829877257347, 0.016853293403983116, -0.0396866537630558, 0.0431576669216156, 0.09742549806833267, -0.08316581696271896, 0.08019916713237762, -0.10422759503126144, -0.10076729953289032, 0.002812745748087764, -0.08611128479242325, -0.2513678967952728, -0.09192445129156113, -0.16052371263504028, -0.06908225268125534, 0.09321095049381256, 0.009136575274169445, 0.025294296443462372, 0.10729243606328964, 0.09792612493038177, 0.049920279532670975, -0.14359275996685028, 0.17089012265205383, 0.13970297574996948, -0.12628012895584106, 0.09685185551643372, 0.02672674134373665, -0.03322926163673401, 0.04149382933974266, -0.16386114060878754, -0.0026870216242969036, 0.08857380598783493, -0.06961064785718918, -0.0763474851846695, -0.008645589463412762, 0.04128382354974747, -0.04907220974564552, 0.005629739258438349, 0.08486781269311905, 0.05646827816963196, -0.048429280519485474, 0.09018634259700775, 0.04988563433289528, 0.054660774767398834, -0.1905578225851059, 0.018712008371949196, -0.07589426636695862, 0.011001300998032093, 0.02551397494971752, -0.13695231080055237, -0.023089200258255005, 0.1517360359430313, -0.01601097360253334, -0.15969322621822357, -0.024283863604068756, -0.00949682667851448, -0.19313323497772217, 0.08989721536636353, -0.17066216468811035, -0.22074559330940247, -0.1194595918059349, -0.06610870361328125, 0.018617821857333183, -0.11336047947406769, 0.15333588421344757, 0.003871625056490302, 0.0328868106007576, 0.2034529149532318, -0.4939873516559601, 0.45432737469673157, 0.24767988920211792, -0.1843889355659485, 0.3527221381664276, -0.2815273106098175, 0.44688770174980164, -0.28126925230026245, -0.11392161250114441, 0.21085648238658905, -0.32971006631851196, -0.32286685705184937, 0.26510089635849, -0.24788513779640198, 0.06465230137109756, -0.30361759662628174, 0.3617165982723236, -0.06424945592880249, 0.26552122831344604, -0.3055725395679474, 0.13858065009117126, -0.2638247609138489, 0.4298567771911621, -0.08675934374332428, 0.3247506618499756, -0.22767283022403717, 0.03083864226937294, -0.4568595588207245, 0.34914377331733704, -0.26625022292137146, 0.40428370237350464, -0.38741812109947205, -0.21427662670612335, 0.2512942850589752, -0.1792159229516983, -0.19673852622509003, 0.4340030550956726, -0.19695623219013214, -0.10393625497817993, 0.3315958082675934, -0.3335343301296234, -0.21477274596691132, 0.3420528769493103, -0.21353870630264282, 0.08289124071598053, -0.12180179357528687, 0.27759021520614624, 0.06346756964921951, -0.12040315568447113, 0.15671394765377045, 0.25035685300827026, -0.20242296159267426, 0.09828899055719376, -0.05860719084739685, 0.1555107831954956, 0.1233416199684143, -0.20583544671535492, 0.11569348722696304, 0.06093314662575722, -0.16743192076683044, 0.11943896114826202, -0.03762426972389221, 0.22142358124256134, -0.11036324501037598, -0.05403280258178711, -0.016731491312384605, 0.10833246260881424, -0.07914336025714874, 0.14053195714950562, 0.012998166494071484, -0.01618388295173645, -0.07963971048593521, 0.0379171185195446, 0.055289771407842636, 0.01585976406931877, -0.1517539620399475, -0.07271884381771088, -0.0010198774980381131, 0.03823770582675934, 0.006480847485363483, -0.18239924311637878, 0.22588734328746796, 0.16293998062610626, -0.2355082780122757, -0.047423724085092545, -0.1071356013417244, -0.12925985455513, 0.03398872911930084, -0.09290368854999542, -0.17779338359832764, 0.09689309448003769, -0.07354867458343506, 0.11222969740629196, -0.057878926396369934, -0.034843381494283676, 0.15597975254058838, 0.06452062726020813, -0.026276467368006706, 0.05052430182695389, -0.1680009663105011, 0.12797661125659943, -0.18355193734169006, -0.02037198469042778, 0.15090569853782654, -0.13885797560214996, 0.14472047984600067, -0.0036404861602932215, -0.0810013934969902, 0.08103057742118835, 0.09758855402469635, 0.05349215492606163, -0.25904586911201477, -0.09315493702888489, -0.09221670031547546, 0.160020112991333, -0.0994173139333725, 0.18256168067455292, -0.14980639517307281, -0.03490332141518593, 0.04327469691634178, 0.17206135392189026, 0.11226533353328705, 0.13458922505378723, -0.15190978348255157, -0.09967853128910065, -0.06795106828212738, 0.23620867729187012, -0.04667267948389053, -0.1850007325410843, 0.16769030690193176, 0.15354126691818237, -0.0867590457201004, -0.0019883818458765745, -0.12062656879425049, -0.012277595698833466, 0.10623321682214737, -0.0651632621884346, -0.019348109140992165, 0.16927559673786163, 0.1214180439710617, 0.1361072063446045, -0.0894058495759964, -0.127685084939003, -0.083653025329113, 0.21656326949596405, 0.12006331235170364, 0.04190237075090408, -0.1311889886856079, 0.12065376341342926, 0.15537694096565247, 0.13227145373821259, -0.11149227619171143, -0.035986315459012985, -0.09682641178369522, 0.14701782166957855, -0.04563893377780914, -0.06391861289739609, 0.08482933044433594, -0.08656631410121918, -0.06960868090391159, -0.02345467172563076, -0.0053028869442641735, -0.11359909921884537, 0.10695914179086685, -0.08321190625429153, 0.04785739257931709, 0.1147432029247284, 0.08089302480220795, 0.012098649516701698, 0.12201225012540817, 0.0004865332448389381, -0.06924739480018616, 0.12671655416488647, 0.050545286387205124, -0.14215730130672455, -0.031443871557712555, -0.07677801698446274, 0.12346602976322174, -0.003649332793429494, -0.11227080225944519, -0.005169752053916454, 0.10176081955432892, 0.05591179057955742, 0.04806976765394211, 0.02316424250602722, 0.07086684554815292, -0.033403534442186356, -0.04903952404856682, -0.14459075033664703, -0.11848948895931244, 0.07208436727523804, -0.08544154465198517, -0.019458558410406113, 0.1408601701259613, -0.015958765521645546, -0.17386960983276367, 0.1617947369813919, -0.05434756726026535, 0.20158153772354126, -0.13924363255500793, -0.006762760691344738, 0.16033846139907837, -0.08411133289337158, 0.1425008326768875, -0.024401750415563583, -0.15227587521076202, -0.09443245083093643, -0.05736364796757698, 0.1597440242767334, -0.07120326906442642, 0.09585487842559814, -0.09987185895442963, -0.06051987409591675, 0.02320728823542595, -0.08748704940080643, 0.020540187135338783, 0.19408123195171356, -0.07148569077253342, 0.09195850789546967, -0.11651214212179184, 0.14958801865577698, -0.1175120547413826, 0.05565834045410156, -0.05930402874946594, 0.060160666704177856, 0.11842024326324463, 0.07325784116983414, 0.007781278342008591, 0.07750198245048523, 0.07569319009780884, -0.011173474602401257, 0.20843951404094696, -0.12213357537984848, 0.009342278353869915, 0.07057195156812668, 0.035932548344135284, 0.074531190097332, -0.08264954388141632, -0.09237810969352722, 0.1375843584537506, 0.09048424661159515, -0.08446362614631653, -0.007174708880484104, 0.17420411109924316, 0.058824073523283005, -0.07366042584180832, -0.2186681628227234, 0.18163572251796722, -0.19154103100299835, -0.04985819011926651, 0.10129915922880173, -0.14420977234840393, -0.026280827820301056, -0.045692093670368195, 0.12187078595161438, -0.008350832387804985, -0.09908962994813919, -0.031581245362758636, 0.07374246418476105, 0.027788762003183365, 0.17829522490501404, 0.06578512489795685, -0.14830143749713898, -0.18899407982826233, -0.19406995177268982, 0.24336566030979156, 0.040655288845300674, 0.08081676065921783, -0.04782063513994217, 0.017849085852503777, 0.04425618052482605, 0.2057076245546341, -0.17915873229503632, -0.08786792308092117, 0.006363897584378719, -0.16762880980968475, -0.04999491572380066, 0.21343648433685303, -0.20000192523002625, 0.004380686674267054, 0.006728815380483866, -0.10878898203372955, 0.03521421179175377, 0.049944788217544556, 0.061836518347263336, -0.06758000701665878, 0.031216463074088097, -0.0032836932223290205, -0.28323841094970703, 0.22885973751544952, -0.16199490427970886, -0.34308984875679016, 0.09383155405521393, 0.1741837114095688, 0.19210518896579742, -0.023866500705480576, 0.18291282653808594, 0.32737264037132263, -0.16701054573059082, 0.03799658268690109, 0.17893677949905396, -0.21055637300014496, -0.06313369423151016, -0.13180984556674957, 0.21141056716442108, 0.06533842533826828, 0.23621214926242828, -0.1374240666627884, 0.04905954375863075, -0.2930081784725189, -0.00956670194864273, 0.0594010204076767, 0.298722505569458, -0.24353182315826416, 0.07941225916147232, -0.1700272113084793, -0.005745819304138422, 0.022834833711385727, 0.35651975870132446, -0.21192646026611328, 0.012565268203616142, 0.2720862030982971, -0.21473979949951172, 0.13918229937553406, 0.3063161075115204, 8.141437137965113e-05, -0.03384675830602646, 0.37563979625701904, -0.17827393114566803, 0.1999794989824295, 0.08880805969238281, -0.2222820520401001, 0.06030214577913284, -0.1392694115638733, 0.1006942093372345, -0.05790373682975769, -0.13494132459163666, -0.0167141854763031, -0.2065851092338562, 0.03333384543657303, 0.08366396278142929, 0.004148451611399651, 0.024872824549674988, 0.13177746534347534, 0.19963215291500092, 0.005585935898125172, -0.03264010697603226, -0.03400082141160965, -0.13035143911838531, -0.03850887715816498, -0.036362066864967346, 0.3259381949901581, -0.3702816069126129, 0.739798367023468, -0.7121549248695374, -0.047382403165102005, 0.9635194540023804, 1.0120553970336914, -0.5605035424232483, 0.16527828574180603, 0.40753164887428284, -0.4685700237751007, -0.35923460125923157, 0.25845396518707275, -0.6777032017707825, 0.09185577929019928, 0.517177939414978, -0.010199731215834618, 0.13273835182189941, 0.07031478732824326, 0.06652077287435532, 0.30068841576576233, -0.05469927936792374, 0.17836825549602509, 0.007489364128559828, 0.00483526149764657, -0.08637723326683044, 0.053912777453660965, -0.12421897798776627, 0.10854070633649826, -0.05348576605319977, 0.29752352833747864, -0.13409088551998138, -0.053657494485378265, -0.045110829174518585, -0.2638837695121765, 0.1577589362859726, -0.010607397183775902, -0.10535866022109985, -0.12611429393291473, 0.04184399172663689, -0.10362914204597473, 0.1840369999408722, -0.05818562209606171, 0.10457340627908707, 0.06324394047260284, 0.007638703100383282, -0.028531409800052643, 0.29575076699256897, 0.037786222994327545, 0.1251256763935089, 0.027992190793156624, 0.23629094660282135, -0.11926684528589249, -0.16241337358951569, 0.0353061780333519, -0.13726919889450073, -0.049372512847185135, -0.20458585023880005, 0.25534090399742126, -0.19505451619625092, 0.15363599359989166, 0.2917768955230713, 0.10238831490278244, 0.011483152396976948, 0.184026300907135, -0.1277497559785843, -0.025546135380864143, -0.13751959800720215, -0.02769772708415985, 0.07575935125350952, -0.032014500349760056, 0.07111625373363495, -0.21956631541252136, 0.017498193308711052, 0.033598292618989944, 0.013940605334937572, 0.10339230298995972, 0.2203645259141922, -0.11317766457796097, 0.018401598557829857, -0.007886969484388828, -0.23594175279140472, -0.20205029845237732, 0.21872925758361816, 0.16284078359603882, 0.11321799457073212, -0.01699594035744667, -0.10031139850616455, 0.039780087769031525, 0.2469230592250824, -0.021154871210455894, 0.22744789719581604, -0.03690727427601814, 0.1591678261756897, -0.043142687529325485, 0.14521723985671997, -0.2126125544309616, -0.03337213024497032, 0.07058145105838776, 0.057385507971048355, 0.19265460968017578, 0.2942344844341278, 0.2828168272972107, 0.027499573305249214, 0.1776987761259079, 0.05246691778302193, -0.3260486125946045, -0.14765091240406036, -0.002073449082672596, -0.15317729115486145, 0.009773521684110165, 0.150262713432312, -0.13758184015750885, 0.11357162892818451, 0.2529377043247223, 0.1099080964922905, -0.19648341834545135, -0.2954246997833252, 0.12697860598564148, 0.22445707023143768, 0.11234545707702637, -0.5207421779632568, -0.2067250907421112, 0.16130833327770233, 0.12985274195671082, -0.22045652568340302, 0.1450989693403244, -0.4177057147026062, 0.1493634283542633, 0.06149573624134064, 0.27130478620529175, -0.26284998655319214, -0.21329756081104279, 0.20603089034557343, 0.2889852225780487, 0.06357808411121368, 0.1753976047039032, -0.16695819795131683, -0.013962134718894958, -0.28322893381118774, 0.1017463281750679, -0.1772482991218567, -0.17256152629852295, 0.014536191709339619, -0.2163742482662201, 0.030670780688524246, -0.2653299570083618, -0.20426562428474426, 0.03032640554010868, -0.09409227967262268, -0.0766260027885437, -0.13481555879116058, -0.2319844514131546, -0.2639073431491852, 0.05928734689950943, 0.10279323160648346, 0.03412735089659691, -0.1025087907910347, -0.03373744338750839, 0.09522808343172073, -0.1842942237854004, 0.07778935134410858, 0.1558317393064499, -0.20356878638267517, -0.30542680621147156, 0.14374002814292908, 0.15948481857776642, -0.32710617780685425, 0.016224542632699013, 0.4048066735267639, -0.03732183575630188, 0.011723220348358154, 0.19820699095726013, 0.20730355381965637, -0.3583693504333496, 0.28785914182662964, 0.015213660895824432, 0.3180353045463562, -0.3353164792060852, 0.23786737024784088, -0.17480725049972534, -0.2647186517715454, 0.01836901716887951, -0.19353727996349335, -0.06087672337889671, -0.22600318491458893, -0.16344612836837769, 0.027955491095781326, -0.07394590973854065, 0.24303629994392395, -0.09771653264760971, 0.38626542687416077, -0.10849273949861526, -0.0771457776427269, 0.24985840916633606, -0.05597177892923355, 0.10423953086137772, -0.10379444062709808, 0.06430648267269135, -0.05092081427574158, 0.053602978587150574, -0.4079892337322235, -0.13780462741851807, -0.28215646743774414, -0.05928519740700722, 0.047187577933073044, -0.1789359748363495, -0.332863986492157, 0.026685751974582672, -0.07838566601276398, 0.2131069153547287, 0.012589570134878159, 0.23731911182403564, -0.12561990320682526, 0.0722661018371582, 0.2469298541545868, 0.2564708888530731, -0.13448606431484222, -0.07469777017831802, 0.03565594553947449, 0.15495619177818298, -0.23414412140846252, 0.07689321041107178, -0.04122671112418175, -0.08464433252811432, -0.14524663984775543, -0.23693090677261353, 0.1998634934425354, -0.17743544280529022, 0.16403166949748993, 0.13578380644321442, -0.06115952506661415, -0.11469043791294098, -0.11207248270511627, 0.026090281084179878, 0.12368873506784439, -0.15042316913604736, 0.04330981895327568, -0.33149924874305725, 0.37244120240211487, -0.1699642688035965, 0.28244027495384216, -0.044047899544239044, -0.11476355791091919, 0.07860150188207626, 0.04446236416697502, 0.17782814800739288, 0.08027978986501694, -0.25682979822158813, 0.11274689435958862, -0.11059510707855225, -0.13666118681430817, 0.16436928510665894, 0.19447559118270874, -0.23252031207084656, 0.058132827281951904, 0.18344809114933014, 0.06904704868793488, 0.2795568108558655, -0.11740893125534058, -0.06937020272016525, 0.20559366047382355, 0.12988683581352234, 0.24167808890342712, -0.06137910112738609, -0.2922125458717346, -0.149836465716362, -0.27249041199684143, 0.0785677582025528, 0.12393084168434143, 0.13755978643894196, -0.1264588087797165, 0.06932167708873749, -0.06804019957780838, 0.169520765542984, -0.1838662475347519, -0.2437070608139038, -0.03546084463596344, 0.1720537543296814, 0.004960990510880947, 0.10204713046550751, -0.14329244196414948, 0.08866342157125473, -0.027782680466771126, -0.01744871586561203, 0.1877453476190567, 0.08793236315250397, -0.053893476724624634, 0.023517554625868797, -0.05731799826025963, -0.13303908705711365, 0.12062375992536545, -0.11564292013645172, 0.16204950213432312, -0.1592656522989273, -0.05767089128494263, 0.11892250925302505, -0.20917393267154694, -0.05133925378322601, -0.002158850198611617, -0.13321486115455627, -0.1380888968706131, 0.10157402604818344, 0.16770298779010773, -0.0367157906293869, -0.019084766507148743, -0.07135295122861862, 0.056274108588695526, 0.18760782480239868, 0.09042967110872269, -0.002991510322317481, -0.21249106526374817, -0.02606419287621975, 0.074211485683918, 0.03506691753864288, -0.20229661464691162, -0.037370093166828156, -0.05127568542957306, -0.25360938906669617, -0.1176522821187973, 0.09439034759998322, -0.20251208543777466, 0.1199418306350708, -0.09381363540887833, -0.15228165686130524, 0.13213485479354858, -0.07219365984201431, -0.19289647042751312, 0.03025911934673786, -0.0007664893055334687, -0.2911281883716583, 0.0351293608546257, 0.16260892152786255, 0.10786457359790802, -0.029799984768033028, -0.20654408633708954, -0.0006292462931014597, 0.11360584199428558, 0.21797092258930206, 0.04040047898888588, -0.05727396160364151, 0.010739474557340145, -0.08659304678440094, -0.176349475979805, 0.25765469670295715, -0.09092443436384201, -0.024329764768481255, -0.0033699136693030596, 0.20155705511569977, -0.20174157619476318, 0.0894346758723259, -0.12515336275100708, 0.03778141364455223, -0.21569237112998962, -0.3158949315547943, -0.11998744308948517, 0.4434718191623688, 0.09479784965515137, 0.12599317729473114, -0.11384142190217972, -0.15382923185825348, -0.12288900464773178, 0.1317989081144333, 0.38123056292533875, 0.18505403399467468, -0.4463593363761902, 0.07125164568424225, -0.10407723486423492, 0.07313811779022217, -0.4792032241821289, 0.1260705143213272, 0.38963863253593445, -0.30036866664886475, -0.09636009484529495, 0.2994481027126312, -0.006432916969060898, -0.12206940352916718, 0.01957658678293228, -0.0006334471399895847, -0.19580760598182678, -0.017418496310710907, -0.1022113487124443, 0.23905573785305023, -0.10343590378761292, -0.10341447591781616, -0.07214026898145676, -0.026317734271287918, 0.16644816100597382, 0.12294737994670868, -0.1187204122543335, 0.028180645778775215, 0.035983286798000336, 0.03537943959236145, 0.11634176969528198, -0.003460732288658619, -0.11060051620006561, 0.1387263834476471, -0.04771682992577553, 0.06744888424873352, -0.005874862894415855, 0.0946066677570343, 0.16883419454097748, 0.0647609755396843, -0.0659206360578537, 0.002602396532893181, -0.04331320896744728, -0.07305954396724701, 0.17186851799488068, 0.009680725634098053, -0.12226875126361847, -0.06562449038028717, 0.11670926958322525, -0.08830179274082184, -0.15353311598300934, -0.062485259026288986, -0.20052115619182587, 0.03782379999756813, 0.2901465892791748, 0.1517219990491867, 0.4082445800304413, -0.184722900390625, 0.02873201109468937, -0.13437184691429138, 0.11634516716003418, -0.028769612312316895, 0.09245751053094864, 0.02942710369825363, 0.013764936476945877, 0.07113608717918396, -0.07347209751605988, 0.18971964716911316, 0.21759140491485596, -0.10785852372646332, -0.05173325538635254, 0.08086159080266953, -0.06555009633302689, 0.0659007877111435, 0.08819181472063065, 0.1520209014415741, -0.15061147511005402, -0.1892646849155426, 0.1342170238494873, 0.07019323855638504, -0.14105340838432312, 0.08172803372144699, -0.06889036297798157, -0.03605303913354874, -0.03936289995908737, 0.13630381226539612, 0.022959889844059944, -0.016204286366701126, 0.14210005104541779, -0.03303685411810875, -0.1705855131149292, 0.03915373980998993, 0.07730276137590408, 0.0694737583398819, -0.18590675294399261, 0.008888156153261662, 0.3850558400154114, -0.11657097935676575, 0.05643085017800331, 0.2199508398771286, -0.12426796555519104, -0.0001492849987698719, 0.04133272543549538, 0.04778525233268738, 0.0695456936955452, 0.01005053985863924, 0.0779499039053917, -0.2370614856481552, 0.20793002843856812, -0.16975733637809753, -0.13012883067131042, 0.15460699796676636, -0.06613434851169586, 0.04874921217560768, 0.035675615072250366, 0.06781535595655441, 0.13813994824886322, -0.1042434573173523, -0.030751993879675865, -0.03242366388440132, 0.049608927220106125, 0.1720460057258606, 0.016577083617448807, -0.05199925974011421, 0.06160055100917816, -0.07546050101518631, -0.12195353209972382, 0.08555665612220764, 0.08730856329202652, -0.06783376634120941, 0.007475149817764759, -0.09548375010490417, -0.13330909609794617, 0.08161894232034683, -0.0691460445523262, 0.2501853406429291, -0.27897265553474426, -0.008917937986552715, 0.018841000273823738, 0.10457002371549606, 0.14353126287460327, 0.12170882523059845, 0.025282658636569977, -0.053617604076862335, -0.10470119118690491, -0.0567680187523365, 0.012913117185235023, 0.157262921333313, -0.050129566341638565, -0.014253456145524979, 0.23723816871643066, -0.12482355535030365, 0.09147679060697556, -0.20572294294834137, -0.3171815276145935, 0.0004728265048470348, 0.01683633401989937, -0.01599818840622902, 0.022332051768898964, -0.007757548242807388, -0.10308144241571426, -0.13311757147312164, 0.1414886862039566, -0.036375489085912704, -0.021677060052752495, -0.11530919373035431, -0.08769034594297409, 0.09096212685108185, -0.2195764183998108, -0.019592296332120895, -0.25066035985946655, 0.020390184596180916, -0.03664219006896019, 0.08827431499958038, 0.0193861685693264, 0.06326022744178772, 0.03805844113230705, -0.06549612432718277, 0.0017279660096392035, -0.14076821506023407, 0.14364156126976013, 0.006777487229555845, 0.01693357154726982, 0.31723517179489136, 0.0797937735915184, 0.4359332025051117, 0.1232985332608223, -0.042531248182058334, 0.16753196716308594, 0.17832288146018982, 0.12461964040994644, -0.019216706976294518, 0.14997966587543488, -0.07964976131916046, -0.3148147463798523, 0.13064157962799072, -0.0002555421378929168, 0.012160521000623703, 0.6216745972633362, 0.3840893507003784, 0.7860137224197388, 0.3367149531841278, 0.32166430354118347, 0.5370580554008484, 0.016963958740234375, -0.16471581161022186, 0.009386418387293816, -0.009912381879985332, 0.04431184381246567, -0.25407761335372925, 0.030550165101885796, 0.1175820529460907, 0.250044047832489, 0.034441858530044556, 0.08503735065460205, 0.07373818755149841, -0.07419519126415253, 0.09822537004947662, -0.14632809162139893, 0.04800156503915787, 0.0032679946161806583, 0.06962773203849792, 0.14111220836639404, 0.027919575572013855, -0.06757302582263947, -0.0976669117808342, 0.12578308582305908, -0.008423848077654839, 0.1034027561545372, 0.003871977562084794, 0.1898311972618103, 0.13352778553962708, -0.18058161437511444, -0.19843348860740662, -0.10455367714166641, -0.00901999045163393, 0.018357349559664726, -0.00011745138908736408, -0.08351975679397583, -0.23674573004245758, 0.024000490084290504, -0.028195317834615707, 0.05780480429530144, 0.1497969627380371, 0.005432705860584974, -0.0036857984960079193, 0.061595212668180466, -0.2654283940792084, -0.23003597557544708, 0.273232638835907, 0.18307411670684814, 0.06465525180101395, 0.07636795192956924, 0.1436397135257721, -0.15856175124645233, -0.01951102912425995, 0.06650584191083908, -0.048447489738464355, -0.07984427362680435, -0.09510944783687592, -0.05084611102938652, -0.11520154774188995, 0.011744759976863861, 0.009376208297908306, 0.1021617203950882, -0.08145391196012497, -0.019771579653024673, -0.16241048276424408, -0.05583620443940163, 0.14081762731075287, -0.09555733948945999, -0.14778238534927368, -0.07155344635248184, -0.057260192930698395, -0.22449736297130585, -0.10933613032102585, 0.14925304055213928, 0.004306168295443058, -0.09193694591522217, 0.07769747823476791, 0.025138210505247116, 0.05946273356676102, 0.07468864321708679, 0.028797686100006104, -0.04397909715771675, 0.01903093419969082, -0.14400888979434967, 0.2033265084028244, 0.07899168133735657, 0.15783630311489105, 0.0005383322713896632, 0.028479205444455147, -0.19736799597740173, 0.02629009075462818, -0.04179496318101883, 0.1824672967195511, -0.08636157214641571, -0.07197146117687225, -0.010122742503881454, -0.11204037070274353, -0.18698804080486298, -0.06972399353981018, -0.07469025254249573, 0.026580195873975754, 0.034049320966005325, 0.18744665384292603, -0.04760009050369263, 0.03303718566894531, -0.05758310854434967, 0.15945126116275787, 0.09831930696964264, -0.07665777206420898, -0.2465711534023285, -0.14485770463943481, -0.11983288079500198, 0.06802577525377274, 0.17979420721530914, 0.17042936384677887, 0.05097007006406784, 0.06307511776685715, -0.09393083304166794, 0.006285767070949078, 0.13342870771884918, 0.03880155086517334, -0.060312703251838684, -0.05353366211056709, -0.008954886347055435, 0.15535186231136322, 0.10550090670585632, -0.04314185306429863, -0.08129997551441193, -0.2291032075881958, 0.0626666396856308, -0.06744116544723511, -0.01423109695315361, 0.11916926503181458, -0.12356752157211304, -0.028490550816059113, -0.10120058804750443, -0.04008784145116806, 0.05964115262031555, -0.03433198854327202, 0.07710550725460052, -0.2252034842967987, -0.024484025314450264, 0.09755802899599075, 0.26998937129974365, 0.13045376539230347, -0.09487688541412354, 0.008671235293149948, -0.10277745127677917, -0.14450277388095856, -0.03255399689078331, 0.030383914709091187, 0.025018218904733658, -0.13559073209762573, -0.1402888149023056, 0.07975714653730392, 0.061383504420518875, 0.03204934671521187, -0.17234820127487183, 0.10363048315048218, 0.12129221111536026, -0.16722312569618225, 0.09121473133563995, -0.06514328718185425, -0.04953153431415558, 0.22570227086544037, 0.022817671298980713, 0.06748215109109879, 0.07640296965837479, 0.03868338093161583, -0.04301909729838371, -0.2029670923948288, 0.10522367060184479, 0.07099714130163193, -0.016388017684221268, -0.14876198768615723, -0.09375045448541641, -0.10467197000980377, 0.12756967544555664, -0.07778477668762207, 0.19332730770111084, -0.11391226202249527, -0.12345560640096664, -0.1945057213306427, 0.13653433322906494, -0.11113408952951431, 0.1613295078277588, 0.10781435668468475, 0.208988219499588, -0.27339646220207214, -0.15374316275119781, 0.11220230907201767, -0.015560050494968891, -0.16393369436264038, -0.17754867672920227, 0.09553525596857071, -0.017587730661034584, -0.12812171876430511, -0.062483713030815125, 0.036849409341812134, -0.0030739549547433853, -0.06934899091720581, -0.08154209703207016, 0.02954718843102455, 0.2106253206729889, -0.11309017986059189, -0.07421571761369705, -0.12098363041877747, -0.04967806115746498, -0.031429439783096313, -0.12136011570692062, 0.1402958333492279, -0.12815944850444794, -0.14368101954460144, 0.033532239496707916, -0.024870673194527626, -0.19285674393177032, -0.12095263600349426, 0.06577964127063751, 0.2463565617799759, -0.037782955914735794, -0.10261774808168411, 0.3474154472351074, 0.17999689280986786, -0.03821501508355141, 0.2545475959777832, 0.029405813664197922, -0.0398433692753315, -0.07377738505601883, 0.21605566143989563, -0.07381932437419891, -0.1972665935754776, -0.06963913142681122, 0.07552118599414825, -0.18570293486118317, -0.013844011351466179, -0.07075974345207214, 0.45579034090042114, -0.16932877898216248, 0.033614952117204666, 0.18699130415916443, 0.02152015082538128, 0.0649614930152893, -0.15600672364234924, 0.1325230598449707, 0.005931586492806673, -0.11458425223827362, -0.013057480566203594, -0.04564493149518967, -0.0281821358948946, -0.029780160635709763, 0.04358767345547676, 0.027897825464606285, 0.013896789401769638, -0.07090390473604202, -0.00609908252954483, -0.2879082262516022, -0.05158683657646179, 0.1923864483833313, 0.08684808760881424, 0.06449725478887558, 0.12492887675762177, 0.006435507908463478, 0.058576956391334534, 0.1528732180595398, -0.12004977464675903, 0.018674951046705246, 0.07118289917707443, 0.08790195733308792, -0.26545295119285583, -0.36719632148742676, 0.08010321855545044, 0.13265007734298706, 0.04529181122779846, 0.07768373191356659, 0.11106414347887039, -0.14254450798034668, -0.1715722680091858, 0.0460832305252552, 0.09951300173997879, -0.07761690020561218, -0.04016616567969322, 0.08173735439777374, -0.12693917751312256, -0.14523227512836456, -0.38368943333625793, 0.21873635053634644, -0.17946356534957886, -0.09627308696508408, 0.15890248119831085, 0.20423416793346405, 0.09462497383356094, -0.09017017483711243, 0.12500038743019104, 0.06789995729923248, -0.19672352075576782, -0.11939604580402374, -0.04366927966475487, 0.18093763291835785, -0.06451954692602158, 0.13467936217784882, 0.02756900154054165, 0.03501899540424347, 0.031015975400805473, -0.13531677424907684, 0.16486959159374237, 0.11441060155630112, -0.09753115475177765, -0.013544621877372265, 0.037624236196279526, -0.09310457855463028, 0.14430773258209229, -0.05962194502353668, -0.2157493233680725, -0.01674448326230049, -0.15562409162521362, 0.2095922827720642, -0.055055439472198486, -0.05015738680958748, 0.0861610695719719, -0.08136272430419922, -0.11264962702989578, 0.13041427731513977, -0.0996115580201149, 0.07378897815942764, 0.05754273757338524, 0.12385432422161102, -0.08776870369911194, -0.18398581445217133, 0.18265999853610992, 0.14674066007137299, -0.030959706753492355, 0.37694597244262695, -0.24172265827655792, 0.25631266832351685, 0.04814792424440384, -0.016497591510415077, 0.19537582993507385, 0.08933387696743011, -0.002683995058760047, -0.15118853747844696, 0.22348201274871826, -0.07703559845685959, -0.08155252784490585, 0.08257982134819031, 0.10751001536846161, 0.14788755774497986, -0.10434515029191971, -0.11080794036388397, 0.149036705493927, -0.010680858977138996, 0.1360013335943222, -0.01030002161860466, 0.11526753753423691, -0.06937358528375626, 0.043292462825775146, -0.016677923500537872, 0.03114541992545128, 0.013341287150979042, 0.004296642728149891, 0.08835653960704803, 0.13691745698451996, -0.06779428571462631, -0.0035534135531634092, -0.0169259924441576, -0.06850308179855347, 0.013638395816087723, -0.06255030632019043, 0.08922526240348816, -0.010230674408376217, 0.021694445982575417, -0.0036989932414144278, -0.045678697526454926, -0.002731532324105501, 0.09119725972414017, -0.07593611627817154, 0.145231232047081, 0.005402980837970972, 0.06464114785194397, -0.1107073724269867, -0.03067992627620697, -0.13432684540748596, -0.04717542976140976, -0.026420608162879944, -0.07674712687730789, -0.007543995510786772, 0.09959669411182404, 0.12065363675355911, -0.1646525263786316, -0.019539952278137207, -0.013599253259599209, -0.163653165102005, -0.03734077885746956, -0.09211847186088562, 0.11445936560630798, -0.11719908565282822, 0.009454329498112202, -0.0458822138607502, -0.09326472133398056, 0.09868870675563812, -0.10560819506645203, 0.007248006295412779, 0.2092016339302063, -0.05359645187854767, -0.0319891981780529, 0.008625559508800507, -0.03736378252506256, -0.019824545830488205, 0.1316811442375183, 0.0035693668760359287, 0.10818996280431747, -0.22024917602539062, 0.07136932760477066, -0.016272863373160362, 0.1342892050743103, -0.15923595428466797, 0.02104358561336994, -0.11033254861831665, 0.023245908319950104, 0.06093626469373703, -0.04884671792387962, -0.20507164299488068, -0.07303958386182785, -0.3025100529193878, 0.20816271007061005, 0.02860378660261631, 0.1756734848022461, 0.010704665444791317, 0.15611699223518372, -0.021137665957212448, -0.11532565951347351, 0.14309217035770416, 0.19955042004585266, -0.003712157718837261, 0.008463382720947266, 0.050486404448747635, -0.05463721230626106, -0.07476595044136047, 0.059834085404872894, -0.12986473739147186, 0.13032031059265137, -0.052475977689027786, 0.04806344211101532, -0.13170041143894196, 0.0738508477807045, -0.06825580447912216, 0.05414223298430443, 0.09890493750572205, 0.09972389787435532, 0.022247957065701485, 0.11164354532957077, 0.049204856157302856, 0.14340364933013916, 0.21021145582199097, 0.0026808329857885838, 0.07268182933330536, 0.15850183367729187, 0.13938948512077332, -0.024307532235980034, -0.20998576283454895, 0.03285877779126167, -0.10328422486782074, 0.03911220654845238, -0.3511078655719757, 0.05158665031194687, -0.2278779000043869, -0.12602126598358154, -0.16801230609416962, -0.03863973543047905, -0.09699682891368866, -0.021323174238204956, 0.07145609706640244, 0.18528668582439423, 0.017053835093975067, 0.17622390389442444, -0.11688181757926941, 0.08520105481147766, -0.015236509032547474, 0.09476414322853088, -0.04067305475473404, -0.04945119470357895, 0.029412031173706055, 0.004127970896661282, 0.11400308459997177, -0.14627455174922943, 0.027248667553067207, -0.07126525789499283, -0.011393958702683449, 0.09118044376373291, 0.18838468194007874, 0.1986352801322937, 0.15036602318286896, 0.023402897641062737, 0.03206310793757439, 0.10097853094339371, -0.08040271699428558, 0.05444128438830376, 0.17735527455806732, 0.1602330207824707, -0.03868317976593971, -0.12355653196573257, 0.0687607005238533, 0.04070061817765236, 0.10044491291046143, 0.01306138839572668, 0.08945731073617935, -0.22086304426193237, -0.3543919324874878, 0.13010206818580627, 0.3810890316963196, -0.4865710139274597, 0.23124974966049194, -0.9435142874717712, -0.3283082842826843, -0.35187146067619324, 0.7905275821685791, -0.967927873134613, -0.5845540165901184, -1.050788164138794, 0.16165751218795776, -0.807440459728241, 0.33975112438201904, -0.7530953884124756, -0.05845252051949501, -0.008785695768892765, 0.15420150756835938, -0.00658098328858614, 0.19261790812015533, -0.06761930882930756, -0.3973163664340973, -0.04611734300851822, -0.06029598042368889, -0.11695531755685806, 0.049441758543252945, -0.05313336104154587, 0.06934260576963425, -0.04530412331223488, 0.0025838471483439207, -0.09802094846963882, 0.06503921747207642, -0.16348128020763397, 0.026179831475019455, 0.0545252226293087, -0.307777464389801, 0.2993774116039276, -0.016632111743092537, -0.2146734893321991, 0.09401401877403259, -0.14158812165260315, 0.20648039877414703, 0.2577941417694092, 0.04106023535132408, 0.06556890159845352, 0.11506504565477371, 0.2380935102701187, -0.024739084765315056, -0.12265412509441376, 0.14300112426280975, 0.20752260088920593, 0.12218748778104782, 0.20139992237091064, -0.0666402131319046, 0.12385561317205429, -0.17558667063713074, -0.05854697898030281, -0.09662221372127533, -0.11964055150747299, -0.08053026348352432, 0.09721437841653824, 0.0005997579428367317, -0.02163754217326641, 0.1016286313533783, 0.06773940473794937, -0.043839309364557266, -0.003422599984332919, -0.03810524195432663, 0.06398870050907135, -0.03349597379565239, -0.03828132897615433, -0.09169940650463104, -0.034900229424238205, 0.13819609582424164, 0.46887439489364624, 0.12355329841375351, -0.15040640532970428, -0.07805933803319931, -0.01502765342593193, 0.3723074495792389, -0.1012941375374794, -0.15286079049110413, -0.45512714982032776, 0.16677744686603546, 0.08157994598150253, -0.1361713707447052, 0.22953037917613983, 0.15157903730869293, -0.0009339162497781217, -0.162506565451622, 0.10853832960128784, -0.14253243803977966, -0.13450244069099426, -0.12236443907022476, -0.16178971529006958, -0.14541524648666382, -0.2697039544582367, -0.3077865242958069, -0.3183441758155823, 0.08975236117839813, -0.3584844768047333, -0.006178006064146757, -0.14280936121940613, 0.18601402640342712, 0.28775978088378906, -0.1739460527896881, -0.22341489791870117, -0.09441109746694565, -0.1251952201128006, 0.15156681835651398, 0.051661405712366104, 0.010181761346757412, 0.08815914392471313, 0.22376616299152374, -0.10655438899993896, 0.28271424770355225, 0.28333353996276855, -0.06464541703462601, -0.08383571356534958, 0.013791914097964764, 0.025746844708919525, -0.14600668847560883, 0.36173751950263977, 0.06286226212978363, -0.024877306073904037, -0.153865784406662, 0.262398362159729, 0.11377919465303421, 0.04632000997662544, 0.027465397492051125, -0.06527871638536453, -0.02065759152173996, -0.21238283812999725, -0.030405323952436447, 0.027301473543047905, -0.003609695006161928, 0.26642468571662903, -0.3305623233318329, 0.01361323893070221, -0.10855744779109955, 0.06336236745119095, 0.2209683209657669, 0.049728088080883026, -0.08744968473911285, 0.12100890278816223, -0.14072999358177185, 0.007339148316532373, -0.2426081746816635, -0.184653177857399, 0.12370197474956512, -0.14205844700336456, -0.07165545225143433, -0.00914768036454916, 0.2536486089229584, -0.031801577657461166, 0.011798781342804432, 0.18061023950576782, -0.04857156425714493, 0.3045368194580078, -0.25604426860809326, -0.04459000378847122, 0.07137461751699448, 0.3493272662162781, 0.14288732409477234, -0.13955532014369965, 0.18149860203266144, -0.05212491750717163, -0.09265830367803574, -0.05148093029856682, 0.1568211317062378, 0.1678280234336853, 0.3060024082660675, 0.0399579219520092, 0.08403021842241287, -0.09503950923681259, -0.16944295167922974, -0.20351542532444, -0.12591710686683655, -0.014602381736040115, 0.13339921832084656, -0.04704459756612778, 0.056645896285772324, -0.07765163481235504, 0.15765738487243652, 0.3175390958786011, -0.20339979231357574, 0.10764405876398087, 0.09367688745260239, 0.09614048898220062, 0.0726841539144516, 0.19633395969867706, 0.1387459933757782, 0.2888200581073761, -0.3039160370826721, -0.17430096864700317, -0.16760218143463135, -0.09565720707178116, 0.06389698386192322, 0.20374462008476257, -0.1925848424434662, 0.13729798793792725, 0.16388802230358124, -0.11021356284618378, -0.2131091058254242, -0.12000379711389542, 0.021020494401454926, -0.1860247254371643, -0.3217019736766815, -0.09362290054559708, -0.1634105145931244, 0.3172316551208496, 0.04910517856478691, -0.16124945878982544, -0.027110585942864418, 0.13485027849674225, -0.061838824301958084, -0.13460256159305573, -0.31258347630500793, -0.04070041701197624, 0.28993234038352966, -0.10039170831441879, -0.07273904234170914, -0.12180905789136887, 0.12278375029563904, 0.006198630202561617, -0.13783429563045502, -0.02849937044084072, -0.1862422078847885, 0.08235421031713486, 0.03279048204421997, -0.06952863186597824, 0.09430397301912308, 0.2674562335014343, 0.062452562153339386, 0.024419723078608513, 0.15598389506340027, 0.13875076174736023, 0.08803822845220566, 0.02067054808139801, -0.003250721376389265, 0.1523187756538391, 0.09905608743429184, -0.03743626922369003, -0.03562885895371437, -0.12465772777795792, 0.1420242339372635, -0.020523017272353172, -0.13706152141094208, 0.09043848514556885, -0.13249875605106354, -0.041979920119047165, -0.07383879274129868, 0.09856122732162476, 0.1432306170463562, 0.2167472243309021, 0.16061224043369293, -0.12137673050165176, -0.09839803725481033, 0.05941722169518471, -0.15771862864494324, -0.01609247550368309, -0.08985017240047455, 0.05524827912449837, 0.2349736988544464, -0.1943788081407547, 0.08917362242937088, -0.007556133903563023, -0.2061188817024231, 0.2193535566329956, -0.18166983127593994, -0.18195302784442902, -0.14974148571491241, 0.04096329212188721, -0.05766850709915161, -0.04849027097225189, -0.2779776453971863, -0.029516711831092834, 0.23697875440120697, 0.14026592671871185, 0.1542472541332245, 0.022375673055648804, 0.0735388770699501, -0.20311278104782104, 0.022022070363163948, -0.17585459351539612, -0.12411855906248093, -0.16203565895557404, 0.052421849220991135, 0.10008899122476578, 0.08164318650960922, 0.0035263497848063707, -0.16994471848011017, -0.09604577720165253, 0.16888757050037384, 0.026257453486323357, -0.03978754207491875, 0.0992576852440834, -0.1644902527332306, -0.17353376746177673, 0.1314164400100708, -0.07571949809789658, 0.029057681560516357, -0.04839763417840004, 0.11835862696170807, 0.09688884019851685, -0.03714301809668541, 0.07194706052541733, -0.04827576130628586, -0.1413881927728653, 0.06442136317491531, -0.055831167846918106, 0.05996893346309662, 0.1581803858280182, -0.042477697134017944, -0.0007182090193964541, 0.08335566520690918, -0.14162489771842957, 0.06449893862009048, 0.09226472675800323, -0.06708855926990509, -0.13828715682029724, -0.06671495735645294, 0.12120380252599716, 0.07927940040826797, 0.18210940062999725, -0.14757508039474487, 0.031234724447131157, 0.098843052983284, -0.12662003934383392, 0.23009124398231506, 0.07312466204166412, -0.1311582326889038, 0.06301040202379227, -0.10624312609434128, 0.15967339277267456, 0.02546500787138939, 0.0039572459645569324, 0.2273203283548355, -0.04172397777438164, 0.11120709776878357, -0.15322929620742798, 0.21931138634681702, 0.14555621147155762, 0.11097830533981323, -0.010344762355089188, 0.028770137578248978, -0.10546835511922836, 0.09240960329771042, 0.04757850617170334, 0.10991550981998444, 0.05992719531059265, 0.00855062622576952, 0.019673505797982216, 0.11761702597141266, -0.09458978474140167, -0.02882334217429161, -0.1552405208349228, -0.1558011919260025, 0.0005455094506032765, 0.0030862323474138975, -0.06859248876571655, -0.26161640882492065, 0.26375481486320496, -0.024052569642663002, 0.0802021324634552, 0.22611698508262634, 0.06026392802596092, -0.041650816798210144, -0.3026677072048187, 0.07885096222162247, -0.014874265529215336, 0.1791762411594391, -0.003565265564247966, -0.14023925364017487, 0.01741596683859825, -0.002030501840636134, -0.1575562208890915, 0.048787329345941544, 0.1475858986377716, 0.09377362579107285, 0.009141677990555763, 0.0660039633512497, 0.07935411483049393, 0.019897127524018288, -0.03972448781132698, -0.20442241430282593, 0.11334484070539474, -0.034713517874479294, -0.09645552188158035, 0.09404817968606949, -0.11130191385746002, -0.0012220769422128797, -0.16145354509353638, -0.18694418668746948, 0.013146594166755676, -0.27413076162338257, -0.32103633880615234, -0.05340149253606796, -0.10258102416992188, 0.002640823367983103, -0.09187345206737518, -0.02770441398024559, 0.07405157387256622, 0.09226305782794952, -0.09435256570577621, 0.1721383035182953, 0.07870994508266449, 0.17038436233997345, -0.009628724306821823, 0.08821377158164978, 0.17479674518108368, 0.15409842133522034, -0.17814579606056213, -0.14542719721794128, -0.06195918843150139, -0.14432145655155182, -0.03411075845360756, -0.11532167345285416, 0.11248480528593063, 0.2715819478034973, 0.11391835659742355, 0.034810248762369156, 0.015261600725352764, -0.07461623847484589, 0.04405031353235245, 0.08254983276128769, -0.297534316778183, -0.15478557348251343, -0.13983312249183655, -0.046197738498449326, 0.17346568405628204, -0.032938018441200256, -0.17960435152053833, 0.20613563060760498, -0.1472315639257431, 0.12914587557315826, -0.00019999350479338318, 0.06456468254327774, 0.1477477252483368, -0.13646024465560913, 0.05506894364953041, 0.10764208436012268, -0.11982518434524536, 0.0006908377981744707, 0.06646126508712769, -0.09488730132579803, -0.06183919683098793, -0.010655340738594532, 0.021309074014425278, 0.10098980367183685, 0.06896339356899261, -0.005082830786705017, 0.0007949861465021968, 0.06513504683971405, 0.10470052808523178, -0.023533375933766365, 0.10404760390520096, 0.013385682366788387, -0.04724375158548355, -0.32420581579208374, -0.2594996988773346, 0.002690953901037574, 0.11426340788602829, -0.03243744745850563, 0.02350812964141369, 0.21705710887908936, 0.03304911032319069, 0.12647691369056702, -0.4039839506149292, 0.02821173518896103, 0.10934974998235703, 0.0731043592095375, 0.09618982672691345, -0.01277698390185833, 0.017775295302271843, 0.03285539150238037, -0.08782616257667542, 0.032856494188308716, 0.13105547428131104, -0.0020574007648974657, -0.018252765759825706, 0.06469772011041641, -0.014959081076085567, 0.02942606620490551, -0.0053837974555790424, 0.10188976675271988, 0.08014323562383652, -0.06959393620491028, 0.04875721409916878, 0.07962846755981445, -0.08213286846876144, 0.0655401423573494, -0.18873780965805054, 0.05418739095330238, 0.01336071640253067, 0.05526909604668617, 0.03554486855864525, -0.07958984375, -0.030354449525475502, -0.0388622060418129, -0.12056909501552582, -0.1349402815103531, 0.052437517791986465, 0.010550159960985184, -0.17380359768867493, 0.03350308910012245, -0.09223898500204086, 0.2865616977214813, 0.0379343181848526, -0.010822025127708912, -0.07136081904172897, 0.03026655502617359, -0.03261065483093262, 0.05486508831381798, -0.05201692134141922, -0.20995694398880005, 0.2964974343776703, -0.13573093712329865, -0.04793708026409149, -0.16598571836948395, 0.06648379564285278, 0.020332012325525284, -0.16725383698940277, 0.17003031075000763, 0.04393882304430008, -0.07261183857917786, -0.09567751735448837, 0.0819408968091011, -0.09353848546743393, -0.05077490583062172, 0.10341490060091019, 0.01956849731504917, 0.0007349727093242109, -0.003568220417946577, -0.08369298279285431, -0.14557279646396637, -0.03893868997693062, -0.08598113059997559, 0.007602278143167496, 0.004714008420705795, 0.014973156154155731, 0.0006576347514055669, -0.06156351789832115, 0.012391861528158188, 0.1377384513616562, -0.18837536871433258, 0.18721063435077667, 0.15895700454711914, -0.10689828544855118, -0.08236593753099442, 0.18022455275058746, 0.1579378992319107, 0.03464413806796074, -0.18189169466495514, -0.010107479058206081, -0.059093624353408813, -0.040954992175102234, 0.14704672992229462, 0.09453824162483215, -0.0771937444806099, -0.021040063351392746, 0.0841699093580246, 0.08366420865058899, 0.09589001536369324, -0.18977351486682892, -0.10448259860277176, 0.09107539057731628, 0.1007445827126503, -0.014204434119164944, 0.08955612778663635, -0.026443541049957275, -0.2104843705892563, 0.0816059336066246, -0.05397341772913933, 0.09044229984283447, -0.11646328866481781, -0.07307539880275726, -0.15398778021335602, 0.06899627298116684, -0.062052663415670395, 0.00263009499758482, 0.015108505263924599, -0.08666840940713882, -0.05543381720781326, -0.08465158939361572, 0.1012687161564827, 0.07981260120868683, 0.05666697397828102, -0.16220338642597198, 0.13308140635490417, 0.0780075341463089, -0.024834875017404556, 0.12520627677440643, -0.10696019232273102, 0.052073996514081955, -0.16606168448925018, 0.20968273282051086, 0.03864791989326477, -0.13821373879909515, -0.17668883502483368, -0.055949866771698, 0.17677240073680878, -0.16160540282726288, 0.22228434681892395, -0.01156419888138771, -0.22004210948944092, -0.0018644505180418491, -0.014166656881570816, 0.1280098408460617, -0.11904539912939072, -0.3819279968738556, -0.3578038215637207, 0.16730332374572754, 0.18327800929546356, -0.052611757069826126, -0.1279173493385315, 0.06396828591823578, -0.18703916668891907, -0.03293374553322792, 0.15566281974315643, 0.23098163306713104, -0.09943472594022751, -0.19612117111682892, -0.02038741298019886, 0.10893147438764572, -0.15164120495319366, -0.016436578705906868, -0.009726623073220253, 0.14690567553043365, -0.054076213389635086, 0.0964466780424118, -0.0405668169260025, -0.01506007369607687, -0.008166731335222721, 0.03490738570690155, -0.1523311883211136, 0.07608471810817719, -0.021711954846978188, -0.04031181335449219, 0.13464632630348206, 0.09735517203807831, -0.09063097834587097, 0.030986865982413292, 0.009830838069319725, -0.10815990716218948, 0.04438674822449684, -0.018839890137314796, 0.06803977489471436, 0.03686848655343056, -0.11196862161159515, 0.01351633109152317, 0.1728769838809967, -0.19989947974681854, 0.18463411927223206, -0.10118068009614944, -0.050112757831811905, 0.026240983977913857, -0.1803116649389267, 0.06743408739566803, 0.3154640197753906, 0.4360761344432831, -0.05392635613679886, -0.028307553380727768, -0.09129337966442108, 0.05239332094788551, 0.11190146207809448, -0.10996870696544647, -0.13047079741954803, -0.17744122445583344, -0.11075297743082047, 0.140776589512825, -0.30691683292388916, -0.12037898600101471, -0.1159682646393776, 0.10489870607852936, 0.027850478887557983, 0.12677927315235138, 0.023404885083436966, 0.11861520260572433, -0.03844163939356804, 0.07578455656766891, 0.06456949561834335, 0.10268409550189972, -0.1123555600643158, -0.09455680847167969, -0.11623108386993408, -0.2750866115093231, -0.22061777114868164, -0.18451765179634094, 0.12310892343521118, -0.25133997201919556, 0.19239628314971924, -0.14889775216579437, -0.23733392357826233, -0.05961140617728233, 0.2100168913602829, -0.05529015138745308, 0.12043629586696625, -0.053196053951978683, 0.18530261516571045, 0.12408365309238434, 0.05219561606645584, -0.04094695672392845, -0.09276217222213745, 0.22708062827587128, 0.05505664274096489, 0.0024179732427001, -0.20384255051612854, 0.013134266249835491, -0.13452939689159393, 0.061091333627700806, -0.04108056053519249, 0.15122489631175995, 0.18415337800979614, 0.056149065494537354, 0.0009347879095003009, 0.0934702455997467, 0.11734003573656082, -0.006040593609213829, -0.08495744317770004, 4.9068508815253153e-05, 0.02674303762614727, 0.08461542427539825, 0.12407473474740982, -0.05163789168000221, 0.08262255042791367, 0.06335519254207611, 0.08752905577421188, -0.06418042629957199, -0.03764646500349045, -0.1958448588848114, -0.10822835564613342, 0.056982383131980896, 0.007844951003789902, -0.2340966761112213, -0.07324875891208649, -0.08232367783784866, -0.007113280240446329, -0.15059658885002136, -0.30585429072380066, -0.050198234617710114, -0.22229506075382233, -0.07251004874706268, -0.054135266691446304, -0.14943261444568634, 0.02504340186715126, 0.17772851884365082, -0.1713142693042755, 0.06145191192626953, 0.07867636531591415, 0.022107897326350212, -0.0884624794125557, -0.20925530791282654, 0.27981311082839966, -0.060396961867809296, 0.06326394528150558, -0.12911298871040344, 0.04195166006684303, -0.06276640295982361, -0.12306201457977295, -0.0725928321480751, -0.06159969046711922, 0.08544611185789108, -0.1262848824262619, 0.029899584129452705, 0.043635327368974686, -0.08359041064977646, -0.014469901099801064, -0.030329786241054535, -0.012831157073378563, 0.006404643412679434, 0.09755857288837433, 0.08773382008075714, 0.002919593593105674, 0.022244462743401527, -0.0019171095918864012, 0.059947650879621506, 0.0362444706261158, 0.013125497847795486, 0.0615692175924778, -0.13238197565078735, 0.04440104588866234, 0.0384049117565155, 0.09480378776788712, 0.06650476157665253, 0.08887273073196411, 0.08973481506109238, -0.04366830736398697, 0.03802722692489624, 0.07709216326475143, 0.09512625634670258, 0.04925590381026268, 0.15422946214675903, 0.02023392543196678, -0.044633954763412476, -0.1464557647705078, -0.07897026091814041, 0.0646279901266098, -0.0062139625661075115, 0.035404618829488754, 0.10535357147455215, -0.059518128633499146, 0.09851225465536118, 0.07614459842443466, -0.14678846299648285, 0.06015866994857788, 0.11932895332574844, -0.14045362174510956, -0.11758384853601456, -0.060590486973524094, 0.11970194429159164, -0.17990414798259735, -0.056599654257297516, -0.16669049859046936, -0.04248221591114998, -0.04352042078971863, -0.09478699415922165, -0.07068102061748505, -0.0426529236137867, -0.13369165360927582, 0.08647603541612625, -0.045445606112480164, -0.04853878915309906, 0.14683526754379272, -0.16349785029888153, -0.024602675810456276, 0.0712885931134224, -0.03264198079705238, -0.026872746646404266, -0.10333152860403061, -0.2035009264945984, -0.2901076674461365, -0.08378276228904724, 0.06891060620546341, -0.02428722381591797, 0.14081265032291412, 0.1972426176071167, -0.12457070499658585, -0.15721534192562103, -0.1347869634628296, 0.05482691153883934, -0.004140893928706646, -0.11822396516799927, -0.09626087546348572, -0.022909851744771004, -0.1448354870080948, -0.19069822132587433, -0.04405580088496208, 0.1911952942609787, -0.1375119835138321, -0.1320813149213791, 0.033498670905828476, 0.04592869058251381, 0.082249715924263, -0.1163889691233635, -0.15940971672534943, 0.1663917601108551, -0.1401897370815277, -0.2600339353084564, 0.15536049008369446, 0.002330197487026453, -0.10420767217874527, -0.2561878561973572, -0.010125589556992054, -0.1341637372970581, 0.2942901849746704, 0.07968516647815704, 0.07613912969827652, -0.1867789477109909, 0.0268870759755373, -0.07127705961465836, 0.007616455666720867, -0.018526656553149223, 0.02092830091714859, -0.07770401239395142, 0.11188307404518127, 0.08334338665008545, 0.12981100380420685, -0.040945034474134445, 0.19184952974319458, 0.07863789796829224, -0.1404678076505661, 0.35487622022628784, -0.08274401724338531, -0.009296745993196964, -0.02832871302962303, 0.044511813670396805, 0.06237345188856125, -0.04689830541610718, 0.0029372754506766796, -0.20005060732364655, -0.1022045761346817, -0.04070987179875374, 0.11093417555093765, 0.26131924986839294, 0.017340227961540222, 0.004779518116265535, 0.06458915770053864, 0.15905219316482544, -0.1151399239897728, -0.05479711666703224, -0.10936791449785233, 0.08547638356685638, 0.20024824142456055, 0.03887525573372841, 0.02279234305024147, 0.17581263184547424, -0.16357676684856415, 0.16947588324546814, -0.047061219811439514, 0.14384831488132477, 0.016380222514271736, -0.07119778543710709, 0.05104060843586922, 0.09285535663366318, -0.10310199111700058, -0.10064918547868729, 0.1494084894657135, 0.04195549711585045, -0.15410983562469482, -0.1660497784614563, -0.01574604958295822, 0.07955575734376907, -0.24378718435764313, 0.1567353457212448, 0.15341797471046448, -0.07843346148729324, 0.01526071596890688, -0.04995442554354668, 0.008501379750669003, 0.0619904063642025, -0.03646612539887428, -0.025307616218924522, 0.07406239211559296, -0.008227506652474403, 0.062126584351062775, 0.07971581071615219, -0.04915274307131767, 0.17841242253780365, -0.18125584721565247, -0.006189410109072924, 0.04800831153988838, 0.06149051710963249, -0.16170597076416016, -0.1922103762626648, 0.05022517591714859, 0.11097268760204315, 0.03178010135889053, -0.0010970995062962174, -0.0589120015501976, 0.10056979954242706, 0.177024245262146, -0.10932338237762451, -0.03423134610056877, 0.02244766801595688, -0.061157774180173874, -0.14974690973758698, -0.1076408252120018, 0.07041320949792862, 0.061459995806217194, -0.028468169271945953, 0.07525426894426346, 0.10654178261756897, -0.007334508933126926, 0.1400018334388733, 0.02710120938718319, -0.014122583903372288, 0.08375834673643112, -0.08610689640045166, 0.010899076238274574, -0.03295978531241417, -0.10849969834089279, 0.04451828449964523, -0.2519446611404419, -0.043788500130176544, -0.1828996241092682, -0.11662469059228897, 0.06040939688682556, 0.20616069436073303, 0.05642560124397278, 0.02420966699719429, -0.03897476568818092, 0.09394357353448868, 0.19659776985645294, -0.0064574903808534145, 0.13910113275051117, 0.04602140560746193, -0.06739912182092667, 0.12188911437988281, 0.05215359479188919, 0.16242706775665283, 0.15538689494132996, -0.11583340913057327, -0.14058072865009308, -0.4505764842033386, -0.13546989858150482, -0.03391645848751068, 0.038650449365377426, 0.048006486147642136, -0.02767070010304451, 0.1435459703207016, 0.10815729945898056, 0.013652391731739044, 0.12080215662717819, -0.06804153323173523, -0.09062256664037704, -0.2167147696018219, 0.1349831372499466, 0.20512564480304718, 0.006888889707624912, -0.06594964116811752, -0.0160061027854681, 0.09914439171552658, -0.10825353860855103, 0.10794734209775925, 0.2962546944618225, -0.1783110499382019, -0.0344913974404335, 0.3820354640483856, -0.01888645626604557, 0.09420835971832275, -0.11762973666191101, 0.0045024254359304905, 0.0843183770775795, -0.8001060485839844, -0.009431388229131699, -0.3661845326423645, 0.7194579243659973, 0.03364481404423714, 0.0718020349740982, -0.17344367504119873, -0.11688292026519775, -0.10393702983856201, 0.14530861377716064, -0.20594145357608795, 0.021117927506566048, -0.30465033650398254, -0.11830029636621475, -0.18032650649547577, 0.14842790365219116, -0.09749838709831238, 0.1408676654100418, 0.45321643352508545, -0.11459936946630478, 0.06163504347205162, 0.11287583410739899, -0.16025054454803467, 0.020054446533322334, 0.03597843274474144, 0.005824310705065727, -0.09387381374835968, -0.014345817267894745, 0.015717489644885063, -0.011340942233800888, 0.15172721445560455, 0.12846523523330688, -0.08448713272809982, 0.17831021547317505, -0.05150238424539566, 0.042753927409648895, 0.06393349170684814, -0.05813667178153992, -0.06559158861637115, 0.0848039984703064, 0.08916615694761276, 0.13787011802196503, 0.11418542265892029, -0.11632333695888519, 0.10970664024353027, 0.03719635680317879, -0.02034367248415947, -0.308218389749527, -0.5194183588027954, 0.9683506488800049, 0.27655404806137085, -0.5379821062088013, 0.30547189712524414, -0.1961241215467453, 0.013053305447101593, 0.4805690050125122, -0.8675094842910767, 1.0904641151428223, 0.7042050957679749, -0.04374833032488823, -0.40733787417411804, 0.3319827616214752, -1.1199816465377808, 0.12053024768829346, -0.149624302983284, 0.08175873011350632, -0.2126024216413498, 0.24110081791877747, 0.17961561679840088, 0.2153119593858719, -0.026120774447917938, 0.21505939960479736, -0.06448015570640564, 0.23602241277694702, 0.1671900451183319, -0.18234063684940338, -0.19346241652965546, -0.046139493584632874, -0.16317740082740784, 0.1929806023836136, -0.03516639024019241, 0.10971339046955109, 0.09672289341688156, 0.08100448548793793, 0.21910825371742249, 0.011048443615436554, -0.13002446293830872, -0.18374007940292358, -0.0182738546282053, 0.07702995836734772, -0.18077436089515686, 0.15253667533397675, 0.3472711741924286, 0.02257617376744747, -0.020912179723381996, 0.03794310986995697, -0.12306293845176697, 0.05472366511821747, -0.13043184578418732, 0.09163253009319305, -0.17073968052864075, 0.028004229068756104, -0.3440616726875305, -0.06515196710824966, 0.02021491900086403, -0.038069576025009155, 0.14547394216060638, 0.25986653566360474, -0.25998979806900024, -0.08137619495391846, 0.24820710718631744, 0.37831956148147583, 0.1451660394668579, 0.1765611618757248, 0.053787607699632645, -0.0949951559305191, 0.28644317388534546, -0.34724968671798706, 0.27471044659614563, 0.2846675515174866, 0.01494434755295515, 0.20015180110931396, 0.12806396186351776, 0.10782919079065323, 0.3055349588394165, 0.08739502727985382, -0.14420703053474426, 0.11201465129852295, -0.14572486281394958, 0.32094764709472656, -0.1241423487663269, 0.1428249627351761, -0.11082373559474945, 0.030783027410507202, 0.14026176929473877, 0.2269650101661682, 0.049858208745718, -0.17508625984191895, 0.19040219485759735, -0.23776447772979736, -0.09498751163482666, 0.15870167315006256, 0.016671856865286827, -0.24425305426120758, -0.18210071325302124, -0.00046324700815603137, -0.11624649912118912, -0.05273972079157829, -0.12327220290899277, 0.27097365260124207, 0.013129404745995998, -0.09864132851362228, -0.1602935791015625, -0.05908092111349106, 0.16066190600395203, -0.00988367572426796, 0.0910816341638565, 0.2861729860305786, 0.023439381271600723, 0.0024365137796849012, 0.21293823421001434, -0.1365746408700943, -0.04954084753990173, 0.19501617550849915, -0.04592040926218033, 0.004510971717536449, 0.07201065123081207, -0.34288573265075684, 0.22627229988574982, 0.19856204092502594, -0.16918203234672546, 0.05437275022268295, 0.10746337473392487, -0.014660094864666462, 0.11306999623775482, 0.32199597358703613, 0.27262914180755615, -0.1675986498594284, -0.08087180554866791, 0.10063545405864716, -0.07354050874710083, -0.0068766106851398945, 0.14569301903247833, 0.20004059374332428, 0.08955109864473343, 0.07302235811948776, 0.1138836145401001, 0.012772196903824806, 0.1819448322057724, 0.05988457798957825, -0.04795129969716072, -0.21199940145015717, 0.24507775902748108, -0.016470348462462425, 0.20846836268901825, -0.04400402680039406, 0.09112928807735443, -0.24487121403217316, 0.11283055692911148, -0.10014781355857849, 0.11162765324115753, -0.056788370013237, 0.20229464769363403, -0.2676517069339752, 0.07180528342723846, -0.0013963880483061075, 0.09353664517402649, 0.11825688183307648, -0.18439742922782898, -0.21160981059074402, 0.14871342480182648, 0.028680948540568352, 0.20631535351276398, -0.07553475350141525, -0.2283497452735901, -0.07544111460447311, -0.09921509027481079, 0.1444838047027588, -0.11499788612127304, -0.03239737078547478, -0.08750162273645401, 0.13027487695217133, -0.3160008192062378, 0.17059969902038574, -0.1350783109664917, -0.12027711421251297, -0.1677931696176529, 0.11499433219432831, -0.13243040442466736, 0.10008060932159424, 0.008586696349084377, 0.15358664095401764, 0.09396669268608093, -0.20570695400238037, 0.06089045852422714, -0.039601828902959824, -0.1620209664106369, 0.03776318207383156, 0.27106958627700806, -0.18056157231330872, -0.12113679945468903, -0.04908027872443199, 0.010545413941144943, -0.05161596089601517, 0.01494667585939169, 0.37733981013298035, -0.16765163838863373, -0.2962900996208191, -0.11551666259765625, -0.13466636836528778, 0.3404403328895569, -0.29503998160362244, -0.3670531213283539, 0.01005601603537798, 0.10471295565366745, -0.259154349565506, -0.13351310789585114, -0.16294947266578674, 0.12201559543609619, 0.0789843425154686, 0.08558178693056107, -0.08955231308937073, -0.289730429649353, 0.0029482373502105474, -0.09343904256820679, -0.07451947778463364, -0.006456549279391766, 0.0810752660036087, -0.03014073520898819, 0.11220771074295044, -0.4133724570274353, -0.0933159738779068, 0.16058582067489624, -0.14737077057361603, -0.11005505174398422, 0.012590988539159298, -0.0790020078420639, 0.24759872257709503, -0.018148085102438927, 0.015271116979420185, -0.10139470547437668, 0.18118968605995178, -0.22063589096069336, 0.003350052982568741, 0.13925985991954803, -0.14848333597183228, 0.08456418663263321, -0.2037598192691803, 0.13262547552585602, -0.05999942496418953, -0.024015966802835464, -0.21881364285945892, 0.05296771228313446, 0.10729008167982101, -0.2103976011276245, 0.1401056945323944, 0.18347622454166412, 0.06983771175146103, 0.22213055193424225, -0.1675695776939392, -0.03920149803161621, -0.04511791095137596, -0.1545862853527069, -0.22517774999141693, -0.16408886015415192, -0.09076570719480515, -0.18866829574108124, -0.12204305827617645, -0.139089435338974, -0.006826491095125675, -0.37305474281311035, 0.03530465438961983, 0.1603306531906128, 0.13349740207195282, 0.2554102838039398, -0.20464086532592773, -0.13440990447998047, 0.006448294036090374, 0.1744215488433838, -0.05736251920461655, 0.08526664972305298, -0.03473927825689316, 0.12991149723529816, -0.19072236120700836, 0.06900110840797424, 0.2790585458278656, -0.03713616728782654, -0.17992974817752838, 0.04834426939487457, 0.11559538543224335, 0.002203173702582717, 0.09205558151006699, 0.2370721995830536, 0.060955047607421875, -0.09319958835840225, 0.21225370466709137, -0.04477434977889061, -0.06866127997636795, -0.135086327791214, 0.018209679052233696, 0.22204814851284027, 0.03351391851902008, 0.01334071159362793, 0.10056096315383911, -0.23731914162635803, 0.14483855664730072, 0.24638491868972778, 0.11966873705387115, -0.16480877995491028, -0.35412225127220154, 0.31914153695106506, -0.22832942008972168, -0.2256968468427658, -0.07613494992256165, 0.03859001398086548, 0.12925849854946136, -0.1759141981601715, 0.1843961775302887, 0.05627673119306564, -0.13886629045009613, -0.12131968885660172, 0.039968058466911316, -0.04952172189950943, 0.11477988958358765, 0.01767345517873764, -0.21089623868465424, -0.07132777571678162, 0.20053355395793915, 0.11795864999294281, -0.15996196866035461, -0.191916823387146, -0.10174848884344101, 0.025097880512475967, -0.07246227562427521, -0.08892116695642471, -0.029833931475877762, -0.02618199959397316, -0.11023478209972382, -0.1424579620361328, -0.05186568200588226, 0.1779165416955948, -0.09524349123239517, -0.09864985197782516, 0.05954861640930176, 0.1449999064207077, -0.1700958013534546, 0.032519835978746414, -0.1663675606250763, -0.012899561785161495, -0.034805767238140106, -0.0816042572259903, 0.08223499357700348, -0.20776225626468658, 0.1871972680091858, 0.3696751296520233, 0.020678721368312836, 0.15105637907981873, -0.025547152385115623, 0.2431274950504303, -0.04849555715918541, -0.14548620581626892, -0.17364941537380219, 0.2343442291021347, 0.07418588548898697, 0.015270145609974861, -0.16241367161273956, -0.10736072063446045, -0.16416871547698975, 0.13574422895908356, -0.020492885261774063, 0.04113330692052841, 0.087879978120327, 0.2931976020336151, -0.19051751494407654, 0.1374988704919815, 0.1349034607410431, 0.19485369324684143, 0.05159296095371246, -0.279458612203598, 0.04486696422100067, 0.09679248183965683, 0.07808709889650345, -0.2977412939071655, 0.06277874857187271, -0.055212780833244324, -0.0597403459250927, 0.14942745864391327, 0.12141658365726471, 0.10354027152061462, 0.14427904784679413, -0.19507254660129547, -0.14024177193641663, -0.18990083038806915, 0.10927209258079529, 0.1724289357662201, 0.03402656316757202, -0.1750333458185196, -0.0692048966884613, 0.05970115587115288, -0.1020326018333435, -0.06803426891565323, 0.011844080872833729, -0.14722184836864471, 0.1605818271636963, -0.010200043208897114, -0.055073339492082596, -0.0754268541932106, -0.11921381205320358, 0.11903002113103867, -0.022888490930199623, 0.17125634849071503, -0.16847361624240875, 0.025581030175089836, -0.009211278520524502, 0.38197311758995056, -0.03423159569501877, 0.10914293676614761, -0.03404315561056137, 0.10748178511857986, -0.047441717237234116, 0.05537506192922592, 0.09457667171955109, 0.15282972157001495, -0.23623421788215637, -0.14427606761455536, -0.12283951789140701, -0.05692056566476822, -0.01335447933524847, 0.04411717876791954, 0.027755388990044594, -0.012897639535367489, 0.0833745226264, -0.2029699981212616, 0.23622359335422516, 0.029865508899092674, -0.07515490055084229, -0.1279899626970291, 0.012711256742477417, 0.05691429227590561, -0.03932846337556839, 0.14353375136852264, 0.034449316561222076, -0.014555176720023155, 0.00904892198741436, 0.053550347685813904, 0.05049829185009003, 0.0005036827642470598, -0.023315755650401115, 0.15811589360237122, -0.06890929490327835, -0.08743659406900406, -0.28814831376075745, -0.2947264015674591, -0.19938333332538605, -0.28047436475753784, -0.08006776869297028, 0.19721639156341553, 0.2922525703907013, -0.06094038113951683, 0.03344878926873207, -0.03633829951286316, -0.10442834347486496, 0.00537865562364459, 0.11127633601427078, -0.10895666480064392, -0.08986140787601471, -0.11847908049821854, 0.0896691307425499, -0.0006896337145008147, -0.04167502000927925, 0.12303347140550613, -0.010287386365234852, 0.06603152304887772, 0.16680888831615448, 0.1960681676864624, -0.007004690822213888, 0.26992514729499817, 0.015440255403518677, 0.025161288678646088, 0.12947098910808563, -0.09709785878658295, -0.32535627484321594, 0.07043352723121643, -0.14144454896450043, -0.06856393814086914, 0.019918251782655716, -0.023555409163236618, 0.10895831137895584, -0.0941343903541565, 0.0066542848944664, 0.11387896537780762, 0.07956274598836899, -0.005574801471084356, -0.05873880907893181, 0.20688922703266144, -0.11855695396661758, 0.09058468788862228, -0.12779995799064636, 0.003937250468879938, 0.16626517474651337, -0.10600490868091583, 0.08275391161441803, -0.2611447274684906, 0.08399052172899246, 0.1449911743402481, -0.086443230509758, -0.13769343495368958, -0.08909527212381363, -0.09909514337778091, -0.2079877108335495, -0.12709182500839233, -0.1226750984787941, 0.24053837358951569, -0.1737438291311264, -0.023353654891252518, -0.035104673355817795, 0.00026715881540440023, 0.11726751178503036, 0.1755998581647873, -0.14411938190460205, -0.0707588791847229, -0.04406436160206795, -0.007999902591109276, 0.04733045771718025, 0.025554649531841278, -0.2015644609928131, -0.14461109042167664, 0.04077630862593651, -0.1735495626926422, 0.06239329278469086, 0.20033158361911774, 0.08285713940858841, 0.03942697122693062, -0.07796850800514221, 0.10466314852237701, -0.10829813033342361, -0.17098909616470337, -0.1053544208407402, 0.011896764859557152, 0.027529459446668625, -0.11666522175073624, 0.03609178960323334, 0.23297087848186493, 0.16501057147979736, 0.03360116481781006, -0.020171303302049637, -0.2259775698184967, 0.07848268747329712, -0.2423650324344635, -0.18815301358699799, -0.23441901803016663, -0.04641954228281975, 0.12273021787405014, -0.030371874570846558, 0.11783617734909058, 0.06080566346645355, -0.00776435574516654, -0.09503015875816345, -0.001681074732914567, -0.10869570821523666, 0.0894712284207344, -0.07210543006658554, 0.030965831130743027, 0.10616253316402435, -0.029023433104157448, 0.01358464639633894, 0.0237069521099329, -0.10460636764764786, -0.014102655462920666, -0.029466470703482628, 0.1386110633611679, 0.09230171144008636, 0.039215054363012314, -0.06950761377811432, 0.062382474541664124, 0.07847657799720764, -0.06109430268406868, -0.011032450944185257, 0.07866964489221573, -0.07166571915149689, -0.08729210495948792, 0.0564785934984684, 0.054023537784814835, 0.03483571112155914, -0.01126862596720457, -0.02676995098590851, 0.021589938551187515, 0.03861493244767189, -0.11981107294559479, 0.13199791312217712, 0.20955634117126465, 0.11729712039232254, 0.040237512439489365, -0.15876197814941406, -0.2864444851875305, -0.007916380651295185, -0.31661033630371094, 0.13082124292850494, -0.22435812652111053, -0.23106564581394196, 0.0647696927189827, -0.09241487085819244, -0.17138543725013733, -0.21921221911907196, 0.09839372336864471, -0.06593367457389832, -0.20751143991947174, 0.08871293067932129, 0.07090763747692108, -0.09769786149263382, -0.008815409615635872, 0.07278326153755188, -0.11759321391582489, 0.28702858090400696, 0.038517020642757416, -0.01307999063283205, -0.07528096437454224, -0.15662166476249695, 0.08295871317386627, 0.13128679990768433, -0.06902778148651123, 0.13002051413059235, 0.05504486337304115, 0.1350487470626831, -0.16435450315475464, 0.0756261795759201, 0.06424883008003235, -0.018803853541612625, -0.06968530267477036, -0.09466058015823364, -0.011015092954039574, -0.02699054405093193, -0.13209062814712524, 0.03769177943468094, 0.12683367729187012, 0.044592224061489105, 0.08040710538625717, -0.07104343175888062, -0.10058333724737167, 0.12003377079963684, -0.03089561127126217, 0.021433504298329353, -0.06736478209495544, -0.18484637141227722, -0.07131373882293701, -0.0487142913043499, -0.25791192054748535, -0.03667942062020302, -0.12034239619970322, 0.049582019448280334, -0.21121624112129211, 0.051996875554323196, -0.1464126706123352, -0.08654969185590744, -0.15823040902614594, 0.1768302023410797, 0.03987964987754822, -0.020095963031053543, -0.06637729704380035, -0.03949976712465286, -0.013502469286322594, -0.023170093074440956, -0.029129313305020332, -0.14629116654396057, -0.03978536278009415, -0.13456380367279053, 0.15058013796806335, 0.06941160559654236, 0.13215920329093933, 0.2387816607952118, 0.13226637244224548, -0.0005741565837524831, -0.01343727856874466, 0.01919659785926342, 0.0478215217590332, 0.000855682126712054, -0.0036859812680631876, -0.043783627450466156, 0.11176095902919769, -0.038189422339200974, 0.1805064082145691, 0.003218594007194042, 0.04041384160518646, -0.07150502502918243, 0.16594302654266357, -0.1056700348854065, -0.1369190365076065, 0.08741387724876404, -0.25345471501350403, 0.09353088587522507, 0.1917361319065094, -0.05995792895555496, 0.11704674363136292, -0.06340060383081436, 0.08128495514392853, 0.028973329812288284, -0.24192844331264496, -0.07829523831605911, -0.17191191017627716, -0.00833901483565569, 0.09038654714822769, -0.0413392037153244, -0.0445883646607399, -0.1030656024813652, -0.015696853399276733, 0.026924587786197662, 0.0401880107820034, 0.2042500376701355, 0.014725514687597752, -0.1101134717464447, -0.08399646729230881, 0.043987955898046494, 0.20330089330673218, 0.010883195325732231, -0.2601771950721741, 0.1262616515159607, 0.12502196431159973, -0.19864267110824585, -0.2127683013677597, 0.04810120165348053, 0.06465853005647659, 0.006509029306471348, 0.14968636631965637, 0.036744341254234314, 0.1435619294643402, -0.07636773586273193, 0.013462509959936142, -0.03407144919037819, 0.13956022262573242, -0.05788344517350197, 0.009632053785026073, -0.1401364654302597, 0.10419738292694092, 0.04992562159895897, -0.04324889928102493, 0.018253354355692863, -0.08449417352676392, 0.01961979642510414, 0.13530072569847107, 0.07188277691602707, 0.24539178609848022, 0.051721345633268356, 0.0032746705692261457, -0.22693148255348206, -0.1208449974656105, 0.05604853481054306, -0.035670846700668335, 0.18047885596752167, 0.005686696618795395, 0.15795323252677917, 0.13661298155784607, -0.09738199412822723, -0.020008821040391922, 0.07055448740720749, -0.22684833407402039, -0.0043375808745622635, 0.027918729931116104, -0.24678175151348114, 0.07077812403440475, 0.016813358291983604, 0.018183376640081406, -0.12059316784143448, -0.18408434092998505, 0.020611627027392387, -0.12547940015792847, -0.207758828997612, -0.2152038812637329, -0.006706634070724249, -0.02163183130323887, -0.05496130511164665, 0.01572192832827568, -0.042097508907318115, 0.22243894636631012, -0.036305129528045654, 0.03709166869521141, -0.025484967976808548, -0.24886246025562286, -0.09022635966539383, 0.23636771738529205, 0.0676896870136261, 0.23403505980968475, -0.1680527627468109, -0.023210976272821426, 0.2095419019460678, 0.3611672520637512, 0.16650858521461487, 0.05281885713338852, -0.21177014708518982, -0.3703947961330414, -0.163106769323349, 0.1372673213481903, -0.061009250581264496, -0.1517675220966339, 0.13989517092704773, 0.058903343975543976, 0.12095542252063751, 0.054938312619924545, -0.03309394046664238, 0.060961443930864334, 0.10156470537185669, 0.10666420310735703, 0.2320554107427597, 0.11614231020212173, 0.239348366856575, 0.03318556025624275, 0.18436701595783234, 0.12357722222805023, 0.04380136728286743, -0.2623841166496277, -0.15042154490947723, -0.21166746318340302, 0.24416081607341766, 0.21521909534931183, 0.21211247146129608, 0.14223375916481018, 0.07762810587882996, 0.14821240305900574, 0.04247891902923584, 0.18897178769111633, 0.0028779006097465754, -0.25163576006889343, -0.17394275963306427, -0.11544479429721832, 0.11454983800649643, 0.07556214183568954, 0.03581300750374794, -0.002618993166834116, 0.22652111947536469, -0.06728863716125488, -0.1213993951678276, 0.008350594900548458, 0.16457806527614594, -0.10678715258836746, 0.06915546953678131, 0.08242618292570114, 0.015337378717958927, -0.3115084767341614, -0.0048990934155881405, 0.10218479484319687, -0.18410880863666534, -0.15155774354934692, -0.11445117741823196, -0.0093470374122262, -0.1571466624736786, 0.07281981408596039, 0.03379819914698601, 0.12627185881137848, -0.21110130846500397, -0.17096324265003204, 0.05660267174243927, -0.10291195660829544, 0.23009011149406433, 0.15177489817142487, 0.048808753490448, -0.09792130440473557, 0.1133563369512558, 0.1729433536529541, -0.13468864560127258, -0.023082571104168892, 0.19357669353485107, 0.13349367678165436, -0.008040361106395721, 0.10800153762102127, 0.012908942066133022, 0.10612613707780838, -0.08985983580350876, -0.26977044343948364, -0.11026305705308914, 0.16826915740966797, -0.20097099244594574, 0.057741761207580566, -0.03806677833199501, -0.06298648566007614, 0.02975812740623951, 0.0710521936416626, 0.017912041395902634, -0.15335354208946228, 0.27964839339256287, 0.03895105794072151, -0.14872021973133087, 0.015388255007565022, -0.01852344162762165, -0.28557461500167847, 0.06615356355905533, 0.1454392671585083, 0.03142142295837402, -0.07697882503271103, -0.07350105792284012, 0.032203249633312225, -0.1613902896642685, 0.0653248205780983, -0.24843160808086395, -0.06490232795476913, -0.007134287618100643, 0.20484480261802673, 0.026074841618537903, 0.20873971283435822, -0.2316896915435791, -0.08075268566608429, 0.12399798631668091, -0.05288459733128548, 0.13088902831077576, 0.0770527720451355, -0.2169797569513321, -0.18657836318016052, -0.07337205111980438, 0.197627991437912, 0.0833447128534317, 0.04172291234135628, 0.032457783818244934, 0.2792418897151947, 0.10994928330183029, -0.070246621966362, 0.1658170521259308, 0.12209570407867432, -0.05280151590704918, 0.013427551835775375, 0.0005074954824522138, 0.09969976544380188, 0.07751504331827164, 0.0323493666946888, 0.1263037472963333, -0.01802428625524044, 0.15602253377437592, -0.0728464350104332, -0.1522173136472702, -0.10166168957948685, 0.09881538897752762, 0.14754024147987366, 0.12885376811027527, 0.03859853371977806, 0.23165039718151093, -0.05305596441030502, 0.28730863332748413, 0.0625087320804596, 0.19298233091831207, 0.11467677354812622, -0.16179393231868744, -0.06989167630672455, 0.018610147759318352, -0.00046586489770561457, 0.1584322303533554, -0.2337079793214798, 0.04534091427922249, -0.08389228582382202, 0.13684041798114777, -0.07398074865341187, -0.0491718165576458, 0.06399109214544296, 0.04800401255488396, -0.16856878995895386, 0.16171219944953918, 0.1023152619600296, -0.11204034090042114, -0.06165953353047371, -0.0020444493275135756, -0.09132136404514313, 0.06572217494249344, -0.09415778517723083, -0.15507125854492188, 0.1003710925579071, -0.048761896789073944, -0.2429818958044052, 0.07391174137592316, 0.035288237035274506, 0.038072239607572556, 0.13954585790634155, -0.059066567569971085, -0.05744485557079315, 0.17290452122688293, -0.03241720795631409, -0.048522815108299255, -0.06049781292676926, 0.03206471726298332, 0.09325472265481949, 0.04016914218664169, 0.02924603782594204, -0.12450192123651505, -0.034006357192993164, 0.031102603301405907, -0.23930864036083221, -0.0242372564971447, 0.04218563809990883, 0.004393536131829023, 0.15861494839191437, 0.11318771541118622, -0.0863158330321312, -0.023824043571949005, -0.20642423629760742, -0.1473144143819809, -0.10081495344638824, -0.0038420031778514385, 0.1586102396249771, 0.06246963143348694, 0.02776391990482807, 0.15557876229286194, -0.05218392610549927, 0.10068051517009735, -0.022812018170952797, -0.0030917362309992313, 0.07875292003154755, -0.1047564148902893, 0.017409680411219597, -0.03868301585316658, 0.1074027344584465, -0.12666139006614685, 0.0210544653236866, 0.2181447446346283, -0.07201627641916275, -0.011213279329240322, 0.17190949618816376, -0.011581478640437126, -0.16499194502830505, 0.09775467216968536, 0.16043338179588318, -0.02713407203555107, 0.1793590635061264, 0.11319778859615326, -0.16401751339435577, 0.10950683802366257, 0.0202332716435194, -0.04323341324925423, -0.13552722334861755, -0.09839937835931778, -0.011784796603024006, 0.14045889675617218, 0.11109459400177002, 0.12457945197820663, 0.12409979104995728, 0.09098045527935028, 0.08494053781032562, -0.024743027985095978, 0.10070879012346268, -0.12927007675170898, 0.047367602586746216, -0.13905930519104004, -0.3583296537399292, 0.2387510985136032, -0.06175655499100685, 0.09640485793352127, -0.17149920761585236, 0.020845288410782814, -0.11351951956748962, -0.036045849323272705, 0.2014930695295334, -0.13795670866966248, 0.006730127148330212, -0.039709631353616714, 0.1250542551279068, -0.165627583861351, -0.14679719507694244, -0.02336939051747322, -0.11859769374132156, 0.23162966966629028, -0.14171761274337769, -0.026026004925370216, 0.12043820321559906, 0.2159329652786255, -0.16436982154846191, 0.06239314004778862, 0.07081697136163712, -0.07686393707990646, 0.07987633347511292, 0.08305390179157257, -0.043934762477874756, 0.15121518075466156, -0.03329145163297653, 0.07164832204580307, 0.15129517018795013, -0.1405687928199768, -0.09744449704885483, 0.05521979182958603, 0.13844570517539978, 0.053822048008441925, -0.05957074835896492, 0.013265413232147694, 0.015501760877668858, -0.058976028114557266, -0.0026359676849097013, 0.7283025979995728, 0.11776810884475708, 0.8492207527160645, -1.080851674079895, -0.3930194675922394, 0.14503434300422668, 0.20717310905456543, -0.17892539501190186, 0.32244759798049927, 0.4103120267391205, -0.9099916815757751, 0.5215625762939453, 0.07546310871839523, -0.8275018930435181, -0.017888454720377922, -0.2835419774055481, -0.2779204249382019, -0.3256668746471405, 0.33651798963546753, -0.16513590514659882, -0.016421889886260033, 0.10339947789907455, -0.058917343616485596, -0.20558813214302063, -0.14711201190948486, 0.07250258326530457, -0.12658734619617462, -0.13078807294368744, 0.17620308697223663, -0.08828920871019363, 0.07809998095035553, -0.010261825285851955, -0.07885701209306717, -0.1532566398382187, 0.09713993966579437, -0.11658360064029694, 0.04679056629538536, 0.0421287827193737, 0.27146631479263306, -0.11626351624727249, -0.2009369134902954, -0.11161494255065918, -0.13576968014240265, 0.2666935920715332, -0.08650067448616028, 0.1683538407087326, 0.09750096499919891, 0.09597491472959518, -0.22042731940746307, 0.1240212470293045, -0.18474115431308746, -0.21236740052700043, -0.016208622604608536, -0.4866848587989807, -0.157472163438797, 0.1294592320919037, 0.04702277109026909, -0.18454167246818542, -0.050106119364500046, -0.2772703170776367, -0.04125164449214935, 0.16654735803604126, -0.03368939459323883, 0.24588263034820557, -0.3413684070110321, -0.06891827285289764, 0.033504851162433624, 0.25110548734664917, 0.22842705249786377, 0.11031816154718399, 0.2516075074672699, 0.07791035622358322, -0.22748833894729614, -0.15652641654014587, 0.016077905893325806, -0.19305618107318878, 0.2802569568157196, 0.09148609638214111, -0.023564692586660385, -0.19967246055603027, 0.23193132877349854, -0.32564082741737366, -0.09673904627561569, 0.18079127371311188, 0.04148607328534126, 0.0025181241799145937, 0.012818528339266777, -0.05701082572340965, 0.22727878391742706, 0.17113052308559418, 0.18253487348556519, 0.2794429659843445, -0.2252011001110077, -0.05701252818107605, 0.017634307965636253, -0.1213020607829094, -0.11961399018764496, 0.15498723089694977, -0.017863651737570763, -0.04293446242809296, -0.1419009566307068, 0.06535550951957703, -0.049976497888565063, -0.0003246368432883173, 0.03690505772829056, 0.07634851336479187, -0.013882867060601711, 0.19641025364398956, -0.08819234371185303, 0.1703958660364151, -0.24998755753040314, 0.12202758342027664, -0.19476735591888428, -0.22863703966140747, -0.07888691872358322, 0.08619268983602524, -0.13349440693855286, -0.08968538045883179, 0.2768738865852356, 0.1468353122472763, -0.2809849977493286, -0.10199910402297974, 0.09919249266386032, 0.10715039074420929, 0.09141313284635544, -0.037417564541101456, 0.07286408543586731, -0.16027672588825226, 0.11719705164432526, 0.4539395570755005, -7.12674082024023e-05, 0.00846333522349596, 0.33104050159454346, 0.010315886698663235, -0.10508503019809723, 0.0077047389931976795, 0.16441690921783447, 0.16447462141513824, 0.036713648587465286, 0.2897087633609772, -0.07824322581291199, 0.019341984763741493, 0.26258304715156555, 0.05875198543071747, -0.12160355597734451, 0.13759423792362213, -0.15983788669109344, -0.07022766768932343, 0.23303668200969696, 0.1617583930492401, -0.14193114638328552, -0.14444094896316528, -0.10178808122873306, -0.08194916695356369, -0.0345245786011219, -0.16720199584960938, 0.12859442830085754, 0.18475393950939178, 0.06174063682556152, 0.009302993305027485, -0.24615667760372162, 0.1821492463350296, 0.25885775685310364, -0.31794342398643494, -0.27330121397972107, -0.13065572082996368, -0.11907101422548294, 0.06153707951307297, -0.24581041932106018, -0.2230985015630722, 0.12488248944282532, -0.3368588984012604, 0.27785810828208923, -0.1456732600927353, 0.02379961684346199, 0.020111462101340294, -0.1592933088541031, 0.008200996555387974, -0.27090680599212646, -0.2520628571510315, -0.15600210428237915, 0.014689406380057335, 0.007609252817928791, -0.16603751480579376, 0.15786923468112946, -0.07356078177690506, -0.14107827842235565, 0.057356853038072586, -0.17341077327728271, 0.08473425358533859, 0.06432859599590302, -0.07193733006715775, -0.09060017764568329, 0.09667479246854782, -0.18391740322113037, -0.16501334309577942, 0.024551037698984146, -0.27184775471687317, -0.08103526383638382, 0.0038119773380458355, -0.09669932723045349, 0.08047188818454742, 0.25777509808540344, -0.1066044420003891, -0.19465258717536926, 0.17909494042396545, -0.09326398372650146, -0.12442082166671753, -0.0707416832447052, 0.19174286723136902, 0.28234344720840454, 0.2923535406589508, 0.2965787351131439, -0.02947743982076645, -0.23778830468654633, -0.05756437033414841, 0.2115575075149536, 0.2902899384498596, -0.24019493162631989, -0.6356967687606812, -0.22230640053749084, -0.1426781266927719, 0.07917771488428116, -0.3278542757034302, -0.009165157563984394, 0.10230837762355804, -0.013510357588529587, 0.3022679090499878, 0.07418371737003326, 0.10493404418230057, -0.0991547480225563, -0.006875782273709774, -0.0037633629981428385, 0.29044920206069946, -0.030434565618634224, -0.25111645460128784, -0.1821979433298111, -0.3279774785041809, -0.15943659842014313, -0.024531105533242226, 0.40411803126335144, -0.07019089162349701, -0.009884613566100597, 0.1015508845448494, -0.20868439972400665, -0.0770217776298523, 0.0699457898736, 0.11172066628932953, -0.21395060420036316, -0.007307024672627449, -0.16919729113578796, 0.20828136801719666, -0.008354203775525093, 0.10938308387994766, -0.0027794940397143364, 0.13045281171798706, 0.13474199175834656, 0.14560279250144958, -0.2221115529537201, -0.11772811412811279, -0.19042299687862396, -0.11054456979036331, 0.017511622980237007, -0.09421594440937042, -0.22488254308700562, 0.09994877874851227, -0.11339999735355377, -0.12310148775577545, 0.1010003462433815, -0.037158865481615067, 0.030873505398631096, 0.13970690965652466, -0.20218943059444427, 0.06464596837759018, -0.09658347815275192, 0.049666840583086014, -0.010825613513588905, -0.13465286791324615, 0.17166735231876373, -0.05468595400452614, -0.24369211494922638, 0.24935893714427948, 0.12457390874624252, -0.03558651730418205, -0.1293228417634964, -0.07511939853429794, -0.09881538897752762, 0.01206065434962511, -0.08186265081167221, -0.08778392523527145, 0.15544867515563965, 0.07499711960554123, 0.08021648973226547, -0.14120398461818695, 0.010452468879520893, 0.15199322998523712, -0.2702089548110962, 0.15776808559894562, 0.080508291721344, -0.04418167844414711, -0.07539748400449753, 0.08639286458492279, -0.5582154989242554, -0.0892019271850586, -0.011986673809587955, 0.16265776753425598, 0.2266499400138855, 0.02709360234439373, 0.05956915393471718, 0.0763470008969307, 0.2845804989337921, -0.07462949305772781, 0.11429178714752197, -0.0860782191157341, -0.03396320343017578, 0.23202846944332123, -0.0800705999135971, -0.021919921040534973, 0.23407641053199768, 0.14018449187278748, -0.3224667012691498, 0.01937708631157875, 0.007700561545789242, -0.12315215170383453, -0.14282715320587158, 0.06330590695142746, 0.17400412261486053, -0.010484767146408558, 0.008188709616661072, -0.25010550022125244, 0.018376996740698814, -0.14500583708286285, 0.08783738315105438, -0.22252921760082245, 0.024383027106523514, 0.13119031488895416, -0.011947623454034328, -0.08324539661407471, 0.21609029173851013, 0.040166355669498444, -0.07675349712371826, 0.118004210293293, -0.06969864666461945, 0.0621330551803112, -0.021523209288716316, -0.14093142747879028, 0.10057538747787476, -0.09859585762023926, -0.012833625078201294, -0.13236309587955475, 0.07368853688240051, 0.0268698837608099, -0.04234873130917549, 0.15021900832653046, -0.10679779201745987, 0.13379807770252228, 0.021566707640886307, -0.2697518467903137, 0.003969971556216478, 0.023755285888910294, 0.05202203616499901, 0.2963644564151764, 0.14662469923496246, -0.0853545293211937, 0.07895419001579285, -0.030878961086273193, 0.12767943739891052, 0.028945306316018105, 0.02417636290192604, -0.24720503389835358, -0.32496535778045654, -0.3759944438934326, 0.05424542352557182, 0.08089010417461395, -0.017209282144904137, 0.03167696297168732, 0.06315181404352188, 0.005661300383508205, 0.15059880912303925, -0.054905205965042114, 0.06574501097202301, -0.06372357904911041, -0.1145963966846466, 0.009692875668406487, -0.0152964536100626, -0.3016403019428253, 0.27291786670684814, -0.1691504418849945, 0.18967805802822113, -0.12819162011146545, -0.1423998922109604, 0.2147311568260193, 0.07238683849573135, -0.29617738723754883, 0.15083511173725128, -0.019912971183657646, 0.04426528140902519, -0.07222609966993332, 0.051806408911943436, 0.03194061666727066, 0.09866183251142502, 0.16166836023330688, -0.19143415987491608, -0.11098996549844742, -0.2743236720561981, -0.0594063438475132, -0.2085762768983841, -0.23946163058280945, 0.0379817895591259, 0.1404201239347458, -0.13762067258358002, -0.07202251255512238, -0.05042309686541557, -0.002538329688832164, 0.07471609115600586, 0.5482254028320312, 0.03586599603295326, 0.0819944515824318, 0.1012025773525238, 0.18269117176532745, 0.04142383113503456, 0.1322067677974701, 0.14817704260349274, 0.04054941609501839, 0.45604726672172546, 0.02869676798582077, -0.13229751586914062, 0.3573295474052429, -0.09196165204048157, 0.1463049203157425, -0.23287007212638855, 0.08488167077302933, 0.004546060226857662, -0.2274543046951294, 0.07857295125722885, -0.11507335305213928, 0.07737333327531815, -0.11021021008491516, 0.035728950053453445, 0.3239951431751251, 0.013494262471795082, -0.12883435189723969, -0.04548674076795578, 0.14582258462905884, 0.027912398800253868, 0.19469688832759857, 0.0692480057477951, 0.05940790846943855, -0.12332385778427124, 0.1341944932937622, -0.06040958687663078, -0.06956358999013901, 0.08170435577630997, 0.08151319622993469, -0.1689690202474594, -0.17298519611358643, -0.02763948030769825, 0.08789724111557007, 0.12595753371715546, -0.18923921883106232, -0.009473933838307858, 0.04517325386404991, -0.050302546471357346, 0.3116002082824707, 0.005523288622498512, -0.025879044085741043, -0.010320493020117283, -0.005826184526085854, 0.204731285572052, -0.07332952320575714, -0.0021282441448420286, -0.060646459460258484, 0.24345654249191284, -0.08866889774799347, 0.10432246327400208, 0.03932147100567818, 0.0424966998398304, 0.22784766554832458, -0.02195611037313938, 0.006462377030402422, -0.16285160183906555, 0.16739913821220398, 0.19486284255981445, 0.11433225870132446, 0.08607328683137894, 0.003127373056486249, 0.135123148560524, 0.015587269328534603, 0.02386142499744892, 0.05591941997408867, 0.0919685810804367, -0.04380268231034279, -0.04761071503162384, 0.10035040229558945, 0.08933432400226593, -0.005214159842580557, 0.14520762860774994, -0.025854188948869705, 0.23624928295612335, -0.1129944920539856, -0.174481600522995, 0.07599052041769028, 0.15284420549869537, 0.3066076636314392, 0.09756634384393692, -0.017974957823753357, 0.07811080664396286, 0.21538706123828888, 0.12387661635875702, 0.04225471615791321, 0.023843973875045776, -0.021890826523303986, -0.2459944486618042, -0.10866419225931168, -0.1418396383523941, -0.1575276404619217, -0.21145392954349518, 0.05099257454276085, -0.002052744384855032, 0.07091668248176575, -0.007876865565776825, -0.2107517421245575, 0.006110141519457102, -0.025623595342040062, 0.030712444335222244, -0.25677216053009033, 0.011429814621806145, 0.20136608183383942, -0.1756192147731781, 0.224182590842247, -0.23202699422836304, 0.09628622978925705, -0.0006046426715329289, 0.07648209482431412, 0.12749050557613373, -0.31058794260025024, 0.0012786700390279293, 0.17178109288215637, -0.011781973764300346, -0.12757691740989685, -0.050511375069618225, -0.12905749678611755, 0.0026940929237753153, -0.25143396854400635, -0.0027185133658349514, 0.14238698780536652, 0.32212522625923157, -0.06184232980012894, -0.17486898601055145, -0.18831413984298706, 0.2797446548938751, 0.2376684546470642, 0.003000347875058651, -0.23797078430652618, -0.03800748288631439, 0.04216412082314491, 0.13807594776153564, -0.050290945917367935, 0.14716647565364838, -0.2871796786785126, 0.10589980334043503, -0.3112103044986725, 0.01659141667187214, -0.09458451718091965, -0.00040389844798482955, 0.027605202049016953, -0.07654884457588196, -0.0949835404753685, -0.35901153087615967, 0.013153920881450176, 0.07061625272035599, 0.05155652016401291, -0.009251510724425316, -0.07525623589754105, 0.10993178933858871, -0.057086165994405746, -0.017181769013404846, -0.030104195699095726, -0.1281764954328537, -0.06737618893384933, -0.04397425800561905, -0.009230517782270908, -0.08270692825317383, -0.1766362488269806, 0.12683914601802826, 